-0.0031367311623238105,0.0027289625375968964,0.00044819448504288895,0.0001174397518332853,0.0024981613920644235,0.008087761473704833,-0.001504376827546797,0.005232056832921034,-0.009126164285396601,-0.007270303748946887
0.0006215733324710269,-0.001946309618834694,0.00031722568397536156,0.0007391674017887073,-0.0030206416657647716,-0.0037525992437111074,0.0006273468764564925,-0.0017132590744045073,0.00649527566472731,0.002835507649307148
0.004222641385267931,-0.0021206353029103297,0.0006249664018880439,-9.610141801314121e-05,-0.002501287987070347,-0.0026759225474752317,6.0979471053120216e-05,-0.000709868184300323,0.004132081257695455,0.001320822769575257
0.0015309796018531314,-0.00272857889832214,-0.0008353154904183112,0.0003230302175522472,-0.002007285856376867,-0.004004997837240151,-0.0001483136739925607,-0.003326911682083489,0.004921226900924474,0.0024781093191114673
0.00033359303979186455,-0.0012813097522810818,-0.00012731072182550166,0.001288523595268462,-0.001469467173551377,-0.003202391931116015,-0.0007733375652409529,-0.0023123258807443213,0.003498004176686956,0.003936761609938462
0.0010587309986308823,-0.0012551301027511929,-0.0011009137891131817,0.0018906158200069749,-0.000979646607995223,-0.0021560367350032025,-0.0007408920887696169,-0.0009087323561211144,0.004584897775621416,0.0018750797905738273
-0.0004437766278960857,-0.0006368683339504914,-0.0012253815821453185,0.00022027947688845888,-0.001572189793748007,-0.003963744590714757,-4.8533070493225126e-05,-0.0030284666707411077,0.003835823867412067,0.003147445085438177
0.0026880374440089415,0.0010994943997910311,-0.002307687916712424,0.00132289032050883,-0.0016789637695558968,-0.003246488222833775,-0.000315595358408614,-0.0027357777962920705,0.0027810051273362306,0.0045285819142232
-0.0010055749038810461,0.0001359141915993937,0.0002534797458950415,0.0002370983416727064,-0.002144126880981488,-0.0020079578839977364,-0.0003992095054695722,-0.0009852591647689308,0.0036145900929876757,0.003627584350492619
0.0022709485233857523,-0.0005193998079794362,0.001031774876666617,0.0012513931316469019,-0.0014150462196271957,-0.005826913437315342,0.0023980797499788013,-0.0006915576790025614,0.004512117456818058,0.0030501380894606524
0.000929290490620547,-0.0008687643125025235,-0.0011573384195864372,0.0019542237801591154,-0.0010350944437103008,-0.0023551734141011266,-0.0017621633531271599,-0.0014702488679423603,0.004815528410049037,0.0042613788590135345
0.000940441389999088,-0.0030387803124258266,0.000125624117312256,-0.0008034806938938071,-0.0008830489403195504,-0.0035071040722791805,-0.0006382790846880319,-0.0017959852851097916,0.00482788692654709,0.001884463140151952
0.0017429202731272023,-0.0005934300419133714,-0.00020238101136677413,-0.00039054749844756245,-0.0016347618503746856,-0.004796389637952931,-0.0010967940363211608,-0.0018105172940514709,0.003807094120306955,0.002904011220691242
0.0006887380535528968,-0.0021451281110960643,-0.001625779068776673,0.0020145723127214963,-0.0019514294421787857,-0.004634778388235724,-0.00042658474333926084,-0.0023049079392874223,0.007079777925500254,0.003132753611192619
0.00266488929340976,-0.0014364631761422193,-0.0005577166291644103,0.0002721651593634958,-0.002758361128838956,-0.004933993534544417,-0.00048772464826958844,-0.0019158346431445532,0.0045947243289248905,0.0015547955262966377
-0.00037471350111481104,-0.002550332984093262,-0.001215658168991607,2.551003902980366e-05,-0.0027653752568091786,-0.0018056628479013095,0.0007323246950070189,-0.0016845232365280925,0.004979887782927206,0.0014969100570341408
0.0023376731926992647,-0.00025757251304558753,-0.0015710823341370383,0.0012090322824106587,-0.0017324690779030759,-0.002155637942521913,-0.001944325516827176,-0.00036711115838738203,0.003710295391008,0.002700452631299229
0.0019703450251669237,-0.002350085437924052,0.0019083615719917106,0.0008722305906172431,-0.002789943999398339,-0.003171401213644675,-0.00036802099373783696,-0.0015966619316843903,0.004448698803464137,0.0029189648630460335
0.0018400616794985245,-0.0009553245241286507,-0.00023627578711181885,-0.0008964705646894511,-0.002014160659778182,-0.0031668256421335194,-0.0003907623317721971,-0.002079880798924374,0.004430905852787415,0.004965515184940967
0.0009568838703705188,0.0009455841074639996,0.0002762860710380623,-0.0012559120212024975,-0.0004589664669687897,-0.0026046641519503304,-0.00041973727963713517,-0.0020498224355891327,0.00409480806428983,0.002680128203578741
0.0015090266899849822,-0.0019052300590142299,-0.0004743072526503496,-0.0001474951726584904,-0.00039175948161836974,-0.004616913741816809,-6.82971071136804e-05,-0.0021889754566805143,0.0038239094161025963,0.0022178257200123896
0.003019159050425578,0.0022980439167731063,-0.0012572240416030187,0.0003095464545664894,-0.00030492783273809504,-0.004683659929082376,0.0012360601569259048,-0.002325089393505042,0.004946572824065554,0.0009438252903207719
0.0012874214601439002,5.455831947455094e-05,-0.0009546411182400553,0.000892911574924685,0.00011125544866102976,-0.0013684711377079345,0.0002393031280534742,-0.0010451598807028942,0.004316024830351273,0.003940259353463663
0.0003772225984350231,-0.0010202281962613906,-0.001962979623875918,-0.000406914923643819,-0.001485776077891558,-0.002868308160169417,0.00036182190228448906,-0.000795774695627109,0.002898600541766263,0.0027887395570551582
-0.000285561580597375,-0.0009430579943476025,0.0008642090091632226,0.0009857120560369393,-0.002019759029406905,-0.0009321099778712176,-0.00012191694787305927,-0.0026499453859914774,0.005113180048269943,0.002509133384270842
0.001702831338038934,4.553404954744548e-05,-0.002457764548915607,0.0011380924851512374,-0.0010877286014409104,-0.0024267463432324776,0.0011402974086741004,-0.0019758196564462075,0.004235044053224691,0.005754147726518118
-0.0008200196700712368,-0.002324384552371763,2.6876506451637794e-05,0.0009111658292269168,-0.0020011936989407604,-0.004156717271330571,0.0011300032472168942,-0.0023332831638473448,0.006700107521758642,0.0018889652987835286
0.0008268085766671816,-0.001540699099267966,-5.496394787012527e-05,0.00033664606990281245,-0.0018117164898223158,-0.002175016624240065,0.00038118849684708997,-0.002586431720274154,0.003529293491102537,0.0028203966542145143
0.0009102337734407233,-0.001204714489108791,-0.0011698444594070495,0.00018744911601427204,-0.0015443599609205557,-0.0025051738912007897,-0.0010333894200698244,-0.0025343909248972817,0.005726081924723959,0.0033379930066273576
0.001233394064268194,0.0010923279301257142,-0.001285088557374415,-0.0019873708309964687,-0.0009032287943079545,-0.003778799548083191,-0.0007346636049755277,-0.0016326869758555135,0.0032413377373054927,0.0025496602225073073
0.002055755678869743,-0.00118236209302861,-0.000811024610639304,0.0019112480324179556,-0.0007693436084736072,-0.00502410982930815,-0.0005802837797958845,-0.001456618151419628,0.0029047463246181767,0.0015547717606349092
0.0009990621181393562,-0.0003642092185802588,-0.0005840602995184211,0.0009097068908139095,-0.0017530773465184743,-0.005764812045789074,0.001776922425641187,-0.0013936801148562586,0.00492994462222097,0.002910998768556651
0.0002226592048209726,-0.0009223704542097972,-0.0002564365521912597,0.0006942061158244745,-0.001954669764082079,-0.0040470722993056025,0.0007483618270509145,-0.002022879496709691,0.005127741547067328,0.0005341412074386215
4.2418381392867794e-05,-0.002334131721903529,-0.0012299447379972594,0.0009793739709084614,-0.001921015619300028,-0.001857988026045055,0.0002800479113209036,-0.0020738622638214353,0.005157256298076907,0.004361069778770885
0.0031333707169221305,-0.0013002237434108237,0.0003910245554555455,0.0010151974619626398,-0.0011802442421987031,-0.003055734269289047,0.0019966443853336583,-0.0010916803968003563,0.004815877985014454,0.0028431311673582675
0.0009981288265116443,-0.0019101486324553316,0.0014492245447015706,-0.0008283004792757846,-4.4606393622989874e-05,-0.0035287552528151405,0.0017243336755205867,-0.0025230575064543897,0.004768545651039124,0.0032029722610467403
0.0019377015042416849,-0.0010686064484498325,-0.0009084307162684232,0.0002923558536389558,-0.0022970033838783125,-0.0044726791927762796,-9.315442463204935e-05,-0.0007141372182534233,0.0038071854136488437,0.0009164420716069725
0.002815021145083533,-0.0020172194766474444,0.0012179823584294444,0.0014466717259170251,-0.00030876267753834137,-0.00473597400438431,0.0012835466696572808,-0.0008836944368231537,0.005158967112328973,0.002399636014932288
0.0015858836147818866,-0.0021156067555290533,0.0014978817229211279,-0.000238659172562524,-0.0008039929845580827,-0.0026776183652940854,-0.001132256683509899,-0.0023402067596602696,0.003419771703481748,0.0004393739705571922
0.0018738857790026185,0.00027762696627222483,-0.00290287814315128,0.0014817474089766636,-4.351932829890228e-05,-0.0014196804074514146,0.000971813540406583,-0.0012875464336199512,0.004132915044521711,0.002147185710371676
0.00044896934503416835,-0.0015507509978955184,6.536892150164561e-05,0.000784970638196162,-0.002061950471567861,-0.0040106548783808964,0.0006963708522846776,-0.001840397771180477,0.0019026411104173086,0.003449968339817319
0.002025595770852064,-0.00029685157222016247,-0.0011733333435366582,0.00012239013063591035,-0.000374850502853105,-0.005132506576642124,0.0008342787065778505,-0.0011928092862583607,0.0052402340643418754,0.0020770915315659584
-5.308491799831225e-05,-0.0007259146290825169,0.001434570576306447,0.0010242442090282256,-0.0014443342434566704,-0.004393387115435796,0.0005182194770752655,-0.0007066829146797452,0.006644007498449629,0.002306431978370452
0.0013623453892369357,-0.0005016492034376486,-0.0011396226468168924,-0.0002667687953002009,-0.0038298575990185907,-0.003801986207241042,-0.00022378071004349267,-0.002386003553285252,0.0031904709059859225,0.0018470697626750674
0.0013978913886961782,-0.0007207304581520239,-0.00017482359169410816,0.002254410227530413,0.0006742922833430317,-0.0035928085142286816,0.0007641165620832157,-0.0014594197508837404,0.004560683476443952,0.0026164421756045162
0.0018143829287364326,-0.0022847557618702503,-0.0016784499705845318,0.0015650136635722606,-0.0006569037760751591,-0.004242972344021384,0.001205284816786389,-0.0022226859047521632,0.0034090702324801117,0.004896492264933501
0.0003183358460286694,-0.0004143909708159299,-3.2742728762039965e-05,0.0020163684234040385,-0.0027030180739378486,-0.0024976033677193915,0.0008585335174651782,-0.001030485799351558,0.0063434920824299,0.002714535037612955
0.00046509946993726793,-0.002773553753568794,0.00022785597420281,-0.0005970647108927106,-0.00162635620572487,-0.002874716126344487,-0.0006272297121154341,-0.0014594497345976451,0.0025295771649303466,0.001712140593342004
0.0012466164863854604,-0.0005299323363082472,-0.0008190488189264819,0.0011511202880118674,-0.0006312223069764667,-0.003575669365625062,0.002078936544303175,-0.003763936213253058,0.003959805685453965,0.00313815623014496
0.0015205541330909902,-0.002476754647445086,-0.0018785983379697665,0.0018355469115159911,-0.0017263884105095054,-0.003831660068160339,-0.0011383160055063136,-0.002051913158259746,0.004931132852491612,0.0011742568893993183
0.0011101891958563148,-0.0019619449756102516,-0.0006448678052930902,0.00020559048937564408,-0.001462233356016855,-0.0047553695274018554,0.001080599327876065,-0.0023363324680464215,0.00447942429496607,0.0023139241150800646
0.0013707475925359557,-0.00240077964919561,-0.0005829692837660388,-0.0007539796238665282,-0.0017243865040374904,-0.00385312369079007,3.8944213617581074e-05,-0.0019217820771756755,0.004305580065304874,0.002047975729348724
0.0015651012329421943,-0.0010133040653327735,-0.0008968606524793255,0.0008109585308637925,-0.0021093413256752674,-0.004474149015746171,-0.00017856837450057396,-0.0015256516879266998,0.005486372680393493,0.0011738390378994814
0.0006411480306058588,-0.0021597304670095286,0.0006252016325897294,-8.318163374689051e-05,-0.0010914101325904578,-0.003135308857578235,-0.0014003778389067765,-0.0030953797711237093,0.0038924945942667077,0.0025170327256026368
0.0013907343869601168,-0.0013887917766238886,-0.003235910074720701,0.0005424176933877505,-0.0014371298842555187,-0.0041860956710614156,0.0019011002961978655,-0.001929790206437471,0.003546018479930906,0.0029096134350273866
0.0013883619105929566,-0.0019562011882966863,-0.0006912951915340659,0.000145244065512538,-0.0002030328256834434,-0.0039505828886901,0.0009869289476843938,-0.0013583099778118135,0.004806299805544663,0.0032630178588035656
0.0003253681736234646,-0.0006425938359008182,-0.0017121354085165262,-0.0006151442010439159,-0.003390430765089209,-0.0025060273498123675,3.114105013607321e-05,-0.0027477888195825634,0.0031774776985181346,0.003016858555732734
0.0012019275038552236,-0.0005503093471230582,-0.001395758000993902,0.0011376060700259963,-0.0013867967983063124,-0.0026994991706794542,-0.0004036492980354526,-0.0012173129747174779,0.004687122500008496,0.0023359574222605248
0.002795076948884687,-0.0013497882124099798,-0.0015128079706423613,-0.0006623408705970638,-0.0008841167832972262,-0.003993469501746213,0.0011415667742238527,-0.0017514215171876412,0.0039207206140961645,0.001772113139933524
0.00043162531073790816,-0.00028503006754742883,-0.0014195594117498657,0.0010650446747751821,-0.0009498484641837757,-0.0008432921405026603,-0.0009246403054372564,-0.0016837840355054625,0.003513304105366112,0.003948928085545906
0.001674245885221119,-0.0015242619261648437,-0.0005337971616827863,6.836805327382645e-05,-0.0022495987093453487,-0.003065935351146909,0.0021186514613427045,-0.0029103840011693335,0.0031825767255382656,0.0019592266174636524
-0.0003618613492549352,-0.0019167084304225963,0.00044494349018803583,0.000708096893631095,-0.0022213572677126604,-0.0020297165864426093,-0.0003513209610925455,-0.0024677456728681413,0.0038035026574486587,0.0023798250192737617
0.000569414726036793,-0.0032253425012052158,0.0010624859404346713,-0.0003183137243059169,-0.0015434362225532797,-0.0020236877375686834,-0.00038434487903630046,-0.0018631504896825433,0.00447319140600317,0.003979050295034635
0.0004213861220056413,-0.0015672901252382985,-0.00026978453723856247,-9.502181530487855e-05,-0.0010243381577095417,-0.004909970809051045,0.0002856632612288023,-0.001739209796924327,0.004495925588242941,0.003680125579583142
-0.0009450182410069338,-0.00036223847700784,-0.0016581069453959,-0.000497660291233748,-0.0016572294652637196,-0.0037757934825136397,0.0012121484448745525,-0.002176692366817754,0.005892953811476684,0.003971729191643993
0.0014988969947704843,-0.0008868317867830332,-0.00018403915937967286,0.0020265309517803923,-0.0023970061748851243,-0.002711001632957301,0.0035349784139027296,-0.0028996753051282673,0.002873249427283873,0.0020402162444735318
0.0011873496043595482,-0.0023994694099805517,-0.0016576283864791733,-0.0005588291131192746,-0.004250806430816043,-0.0032986717439198116,0.002699979471154003,-0.0018774799236333912,0.002984919948542393,0.0021871430795565505
0.0020653313988447776,-0.0011200148789321154,0.0005512357046851057,-0.0007654653312513924,-0.001945515810441924,-0.0024113372309860813,0.0070632328566676,-0.0017707012352986885,0.00507430093622191,0.0018964349431053718
-0.0005588730655256114,-0.0018377917693850733,-0.0019444357886369236,0.00046189188552654237,-0.0039689048942102515,-0.0050711494355162,0.008615318585032295,-0.004269418247187329,0.00268695190878147,0.0015414124026044372
0.0003677707605405792,-0.0006729420317302073,0.0007574019740760289,2.016452589481411e-05,-0.0025581763498426667,-0.003480996465212344,0.007815008159547285,-0.004066548719211644,0.002772017378767845,0.001764702092622613
1.4031279411870582e-05,-0.0037451725746752316,-0.0004219231072795359,-0.0013801410504115806,-0.004112844153623903,-0.005353493117607788,0.010683266653159548,-0.0022376809400652055,0.0031813597309524534,0.0016506325267135024
-0.0005525388873154422,-0.0008444110459629676,-0.0018998208788858057,-0.00047908630171778665,-0.004972565908940999,-0.006047016433112801,0.010824129796610495,-0.0033866969504129617,0.0026110266717167758,0.000811081674317827
0.00023529000698057893,-0.002292834510118928,-0.0006414954236008935,-0.001018795589052162,-0.0033873259382283982,-0.004984668709098226,0.011769126879240513,-0.0033449928837620798,0.003113592190549898,0.0004752642651776073
-0.0013639032858608316,-0.0008766010453521044,-0.0007133960687570639,-0.0006355264920791865,-0.004049413744228302,-0.005438907355545033,0.014567635241469461,-0.002719885576048637,0.0021125319172068616,0.0006193825211705862
-6.309724487447814e-05,-0.003927772251892786,0.0002572270993764161,-0.0006470753076867133,-0.0024514730318932394,-0.004177695965143772,0.010043393480692397,-0.002253418001025086,0.0013925236636215565,0.0011442630442637016
-0.0006535784547442667,-0.003242280489912295,-0.0029892560585090063,0.0009925870242642274,-0.002415555479944845,-0.004292738393909349,0.012606084263541012,-0.002051284501035703,0.004205511624620321,-0.0003063557655249259
-0.001792477722435741,-0.003955079965335622,-0.0026278352531959514,3.432733583058243e-05,-0.0023406115503585264,-0.004279449449762273,0.008669292623183994,-0.00040964024911795236,0.0029011581888078665,0.002915775714670183
-0.001084865374593189,-0.001282145648295051,-0.00195533574658425,0.0006626944808566246,-0.00441376348852771,-0.004292895178930523,0.006173006468568628,-0.002325182190547076,0.0024712207573532935,0.00233161591633094
0.0025959756079082376,-0.0017218783716469914,-0.00014749110232664393,0.0010119240656858552,-0.002995466766975172,-0.003984383739964314,0.004133197491266318,-0.0017132521981563101,0.00327283143249391,0.0012784804962997424
0.0003223286639939493,-0.002063297679802737,3.062080818547132e-06,7.2778329459236e-05,-0.0037622631069966447,-0.0023069567059543694,0.002154324202148431,-0.0029225029344677055,0.004028462968050154,0.004127148421456042
0.0027905106008967594,-0.00029825655057030034,-0.0002863825485945418,0.0011047734910252197,-0.0022170712612533854,-0.0027845147709563336,0.0006243969664730065,-0.0021931395267310813,0.005147126806962045,0.003667500258467809
0.001424763316010073,-0.0001646134106826389,-0.0007728113839087898,0.00014722539092580221,-0.0022544450772373427,-0.0030915006216890996,-0.0007669825678608451,-0.001888804325448319,0.004203194127338932,0.002315421524846939
0.0009539779780243456,-0.0005625188737972058,-0.0010316224848262096,-0.0017623347408475506,-0.0008254531988524168,-0.0042690020315441345,0.0005661913866089409,-0.002270676268172493,0.005060894560356205,0.0021060085160151095
-0.0005200519106038914,-0.000609277473151575,-0.0011773295350617006,-0.0005352493514265649,-0.002474730893626778,-0.0025549096581610753,-0.00023151922615946376,-0.0025453702127686247,0.004364950010776515,0.004548080107981448
-4.798526599004559e-07,-0.002163106836617883,-0.0005424223826102929,0.0005704244729981243,-0.0032667281687496367,-0.003047584200280047,0.001817516651910898,-0.0017758912825829535,0.003063327131021084,0.0032921478675647453
0.0011830174204101168,-2.756544890437023e-05,-0.0016063631114765402,0.00020271450501386986,-0.00037914545745210246,-0.0036002767808967,0.0003955296483831358,-0.0022486626965763294,0.004281257595587268,0.0021824953508107017
-0.00013818851359203397,-0.001156978832075567,-0.0019455186783534095,-9.86751674362175e-05,-0.0015405688297705647,-0.002327228116267717,-0.0007424129063783007,-0.001324541353716582,0.002834531368464652,0.0025825699131880805
0.0024891893387550485,-0.0007856708497289796,-0.0006626810265502909,-0.0005950089685150795,-0.0011180055263329556,-0.003688183543427438,0.0012319954719999808,-0.00017223753300692744,0.0047013278536616,0.0022219761316622675
0.0030034622160482315,-0.001819438284429078,-0.000711448578986169,0.0009735926257809793,-2.9158262388448257e-05,-0.0007551791409312213,0.0003697734189161943,-0.001763276200407735,0.00476797517358056,0.002605197125710732
-0.00012372509386225283,-0.00020671579518204302,-0.0005643572668436128,0.001122654346157868,-0.0008020266962289781,-0.004974610880505913,2.3655468545695545e-05,-0.0009565533064863995,0.0050631603976192575,0.001643086957535028
0.001482004753552904,-0.0017242967735320816,-0.0011576357732553154,0.0003513014048907922,-0.0004024933085940126,-0.004895530292910354,-0.0005186833703056314,-0.001482322605401998,0.004071817161974146,0.0039029986469102814
0.0008472278221690372,-0.0005791884792528256,0.00015391753165672987,0.001924289147596287,-0.0035092238988056047,-0.0038546339377632808,0.0022926317148980542,-0.003163276582454865,0.004965676241163902,0.0021064106426684735
0.0010053446878582433,-0.0017135428897837408,0.0013867385220633888,0.0008961772987473005,-0.0007577205179478072,-0.004922946998890204,0.0017858520703496624,-0.00275718444706528,0.003189667460525382,0.0026366970495218813
8.417806162238243e-05,-0.0038237760304531943,0.002316282346914249,0.0001452949746681973,-0.004348596151086819,-0.003393406494543107,0.0020819952346126346,-0.0030138424107448397,0.0034406213835677492,0.001693290445906924
-0.0020909109005826237,-0.0008218270297153869,0.006153230882274942,0.0010005570277366535,-0.0017435027353365589,-0.00377989290749461,0.004295833315655584,-0.0033376492721802673,0.002625418848152352,0.0005997240508000489
-0.0016702050172669374,-0.003863449000609671,0.00937833351124835,0.0009756481328185391,-0.004470761124557846,-0.004397839433196753,0.006660179215569604,-0.004188275848539553,0.0005210092110395129,0.0008701335232616742
-0.0018953714750350704,-0.004351327569676784,0.009142122872241079,0.0004452674418549907,-0.005558472336131809,-0.005880601301301888,0.010498160989402556,-0.0038767601293058975,0.0005872977183588482,-0.0001711864278364692
-0.0037788212071137896,-0.004676330692972172,0.013203236004011423,0.0016147405146685614,-0.00747861820139217,-0.006262810612383264,0.011825343828715295,-0.003908606375712012,-0.0011650828529478708,-0.0003136085064108264
-0.002732036255106199,-0.004985821687890576,0.013258391264953298,0.0009272103034197875,-0.011124432956352612,-0.007350092089744963,0.016931295914772958,-0.006206623235114212,-0.0011646682808338785,-0.0026894678536376997
-0.0029321672847793384,-0.006939257651660874,0.01359118319750528,0.0011273607728759687,-0.010579436915951389,-0.007275166935635188,0.022203190862990985,-0.004770950341200904,-0.001431590145277593,-0.0019520073981962368
-0.002588792509360078,-0.006228445512719625,0.010210502892744293,0.00020556707121153407,-0.009390777763344267,-0.00802905623085273,0.02587811057420947,-0.0049330930020480895,-0.0038486549292629894,-0.0034661832801180354
-0.0029510455241220277,-0.004430511178499992,0.008638523774319642,-8.055483114434385e-05,-0.006933624735611736,-0.005857854616004021,0.028912297949334403,-0.006392222178152717,-0.004386357544575326,-0.0021223591443500036
-0.0028836901112334343,-0.007519440928755486,0.00306987302599659,-0.00021456573179716055,-0.0073739854344863865,-0.00782791926627811,0.02903714968575014,-0.006023938127784041,-0.005134449607071486,-0.003273830459363444
-0.0014274092687308485,-0.004204088707132639,-0.0005504278646306036,3.0109953630033995e-05,-0.0047591186253137996,-0.007245908275499417,0.030244337712179038,-0.004531327884744502,-0.002572904636789413,-0.0027112055417433446
-0.0007404747636077193,-0.005710064159017852,-0.0015503915415756662,-0.0009146573660182334,-0.003932736487578525,-0.005279953412958047,0.026748708647333586,-0.005375783923505362,-0.0011603906599335692,-0.0006624365794719936
-0.0008975892978519728,-0.0021055143108475983,-0.001647307125231889,-0.001495485954032546,-0.0037128096133404805,-0.005652170395980765,0.01774011110402123,-0.0025813826445559443,0.002085296747497992,0.0005554621285755804
-0.0011161039704369493,-0.002110244470605433,-0.0013607944651591905,-0.0017340961717985845,-0.002654853935959163,-0.003934459737830459,0.008531832445512144,-0.003764249664663417,0.0026830047163843357,0.0015240797772817934
0.0004698815342048112,-0.0028871875321307876,-0.0007303205636455055,1.5680922582481994e-05,-0.0028524704982411217,-0.004153818966941799,0.0035370292316265713,-0.001132891336127579,0.004248267293027562,0.0024867756921090815
0.00023788205312465113,-0.0017273941076923723,-0.00276059204889237,-0.0008364909631768119,0.0006864438012152692,-0.0045471961041291704,0.0013995947598286727,-0.0035397855482255363,0.003833546622919799,0.0033123574771094996
0.0008779409482144025,-0.0005770073931136941,-7.112912003053961e-05,0.001123086644053581,-0.000594369026130826,-0.002984018949112806,0.0020157047457461746,-0.0025961874937926914,0.0034811740634169397,0.003074376537479602
0.002707262624931332,-0.00209061737242985,-0.0009823674654703125,0.003116537226752837,-0.001638744006182617,-0.0027792267379320116,0.0002635658322524916,-0.002929536317347638,0.0024092397286043636,0.0023461917513455904
0.0009027784570169301,-0.002630519543961191,-0.0003813377270724705,0.002386247200652621,-0.001040934343283277,-0.004781508532901072,0.001436018584103887,-0.003357692754877915,0.004616099234642196,0.003631880858172715
0.002310112168871555,-0.0027242205770806184,-0.001748983258528917,-0.0007499847237971901,-0.0003485390426881934,-0.003159663424595173,-0.0003035142128914566,-0.002092382875406171,0.003305078703197834,0.0029363321872702026
0.002340348065947899,-0.0020521103065145444,-0.0007803519917194137,0.0011392126697412437,-0.001530276459011899,-0.0030694406440228313,-0.001357468466488917,-0.0014544674590971896,0.004421246006520586,0.004226640829769672
0.0016707598656287368,-0.0005782230946627876,-0.0006203421817337978,0.0015763122516341693,-0.0037060581305746803,-0.002399375469028805,0.0004636376951578933,-0.0033218376121532957,0.006235730140186194,0.0017077261078725695
0.0004365662870017197,-0.001904373275117888,-0.0022314103696939574,0.0003783386478258279,0.0001905000279794817,-0.003489167169421931,0.002005708650102963,-0.001651783661403739,0.004364940806633992,0.0029915420606506657
0.0007283837568371774,0.0005127554768094341,-0.002157735331868018,-0.0006775315212314522,-0.0016887092043083294,-0.003137379755347768,0.000306772861742349,-0.0026343936421583357,0.005284255448217782,0.000642787580945714
0.002355893709918508,-0.0033131662784798488,0.0026853296286942978,0.0009110042106471513,-0.0023408194669686886,-0.003257039367495486,-1.0663016131535157e-05,-0.0006882719820365784,0.004456978017955092,0.0036202865482416334
0.0006341201161048023,-0.001800939493218385,0.000284228896714318,0.002078607097633362,-0.0016698643609498309,-0.0032625378843954434,0.000273444037532677,-0.002259180473463556,0.004905090479533555,0.0037166728381849787
-0.0004557780253960219,-0.0018986967413559602,0.0028009782313396544,0.0005830564540707252,-0.0031294677474419325,-0.0024817653688595513,-0.0003714646260131033,-0.003218258267283401,0.003752816472529344,0.0017994480737361508
0.000575380203758191,-0.00177280357744365,0.003555930168203777,0.004273598913597224,-0.0013001803924764569,-0.005046759956513006,0.0022574802804319373,-0.003283948612305632,0.0006914897137426557,0.0018493264843801643
-0.0013442557709711655,-0.004535688457787637,0.009060698566261991,0.00542836547483226,-0.0021231281338726198,-0.007502010679666221,0.003480263942068309,-0.004734447791438679,0.002589820830393958,-0.002933131178414616
-0.0025072083592928424,-0.00412180105510512,0.015658430159082477,0.00779478822728145,-0.004111790759819991,-0.008092473113480735,0.0028123343182292573,-0.005613570209755638,0.0001274585693849244,-0.001254518582590831
-0.0036849112909200336,-0.006026599136724607,0.020546165863960523,0.011470746135046816,-0.006543945197449732,-0.006884046716900835,0.002558113408693126,-0.005819128947684985,-0.0022045458433122764,-0.003723045178342418
-0.004637957691039741,-0.004950054724811307,0.02799604309329654,0.013158344949339137,-0.009872041653750111,-0.009017964402338905,0.0075986619397415255,-0.009396917240652433,-0.0036124832884705583,-0.006135329044124609
-0.002315664269273424,-0.004093319496355349,0.033678355453924,0.012540781037971032,-0.012568217083870941,-0.010455553183301384,0.008237046079956005,-0.011171968258116725,-0.004256125232051813,-0.008997632858533881
-0.00010146677083426044,0.0012543195296337113,0.037836114600588576,0.010126800655761338,-0.015614577560758356,-0.01132539103084742,0.010294371626361666,-0.015545993023296859,-0.00554858651376528,-0.012123456183555712
0.0030735027668366585,0.0005160239357453152,0.03726873417788804,0.008638413627963085,-0.017837156946017903,-0.011644144244456329,0.015786173645739327,-0.01598583396358937,-0.00471048633151709,-0.013711091296024151
0.005129025862615704,0.0013128113060857987,0.033445046749232044,0.002998037054816881,-0.017663853160658143,-0.010622277244181987,0.018776597700826764,-0.016483630418168572,-0.0025378120922279063,-0.015267921518078875
0.006057815072020192,-0.0016272683693600869,0.028325547068413823,0.0009256119717992062,-0.014160903152224113,-0.007892327129007833,0.024081146513145933,-0.01653349417908813,-0.0036134102186925242,-0.015244741406063793
0.003920592982190201,0.0014686667594903137,0.021003934468909292,-0.001342594291954347,-0.00897834381893517,-0.004748229559974827,0.028515409599795784,-0.013898172224006682,-0.003001098176333789,-0.014916360928942309
0.000727895197955557,0.0012354692347607988,0.011535657797038074,-0.004826957976611897,-0.008539259260088038,-0.0013699206506162962,0.024443792877833277,-0.012010396535152732,-0.004520095043162238,-0.010513986079126417
-0.0011847724512357213,0.00630267123635025,0.002938821691902933,-0.004107098423380656,-0.004276926986202233,-0.0004327050014091817,0.022164209046136907,-0.008246812491302793,-0.0059377351310696755,-0.0066873795899552915
0.00022754391379388298,0.0032118909844534825,0.0004074376897107996,-0.0027155739517836334,-0.000610816869610169,0.00171904540460868,0.01387458128908878,-0.0055504312583905535,-0.0020782034249448877,-0.0030412727352568353
0.0017745960292682094,0.0023437646499993763,-0.0009216545012014616,-0.005862139978841131,0.00010124146315116191,0.005023220411482803,0.007837353345373539,-0.006093978837381983,0.0013830740716383044,-0.002099807351388287
0.0004950414718942113,-0.0014361318251341116,-0.005744781839088258,-0.004959202166270002,-0.0003787972909383211,0.0023170725423737317,0.0032313577813995,-0.002669480584814878,0.002079819518621636,0.00029420510717278114
-0.0002902991532331843,-0.001701490175963555,-0.0024224698977078412,-0.003031175143703952,0.002190515051911258,0.0012827170070274787,0.0024154474005401477,-0.0030970900236575918,0.0029309223696541813,0.002121094554313768
0.0011992997741888532,-0.001761421143119393,-0.002414951452782926,-9.878405264239249e-05,-0.002173559035917651,-0.0005341167132711343,0.0015691077270545526,-0.002570702099604448,0.005209351782998362,0.0024212383738633643
-0.0002648825529594776,2.84521623850921e-05,-0.0004978969307416462,0.00046877495295536537,-0.0018197948739751082,-0.0019246366703579835,0.0024604443260864027,-0.0023690771751197735,0.004242178769115671,0.004216387763231563
0.0022833096230346637,-0.003188236505093766,0.0006861813634091043,-0.00021136622649271005,-0.00043326239151443525,-0.004022988506110791,-0.000406533131158909,-0.0010132143809156407,0.002715438648787627,0.0026610030133991124
0.0010413132388670564,-0.0024869363367302625,0.0008083863771743804,-0.00022943368683545084,-0.00040994082708824806,-0.0031564693715257055,-0.0008996670337312557,-0.0003907627403835853,0.005259980032359335,0.0029478275326980203
0.0022580847608784974,-0.0004817185026735907,-0.0003298887259893538,0.0013727715863996331,-0.0005574057151388828,-0.00488319732248231,0.0015575948410157217,-0.0020845206974829293,0.004108645743848842,0.0024847106833356314
0.002167998692763984,-0.0009595223504416282,-0.0007845574692703627,0.0007935292194046104,-0.0009131556289293527,-0.003971032162849061,-2.4286322453631848e-05,-0.0018885590934626618,0.004060991343450678,0.004898493881617789
0.0010039661987384112,-0.003134563681840233,-0.0006381111908659066,0.0019602701380866923,-0.0007870000729320735,-0.0037242537298320328,0.002169126153382501,-0.0011986423676213064,0.005466516342609872,0.0032964509780222667
0.00041802588820865467,-0.0009571191913530178,-0.0006417171214246858,0.0006014560439631521,0.0008473404598083449,-0.0036914923567029174,0.001034993114304732,-0.001995839412505073,0.003517557912898336,0.0024777849471176836
0.0017163402499483608,-0.0008800678811397817,-0.0009036223070172457,0.0002185470546713379,-0.0024479429162037555,-0.0032704911886600966,0.000927286427651709,-0.0015768567303005498,0.004366982087954975,0.002267280676880226
-0.0005528377714312879,-0.0014983063210426595,6.697516151279006e-07,0.0046966181924257035,-0.0006979005160535608,-0.004273273550956174,-0.0012474131028407346,-0.0031053570247373038,0.0035334357067989637,0.0032357017700296855
-0.0007175534519060373,-0.001631944451681625,0.002725679808159388,0.007228416166301571,-0.0007544843113684603,-0.005315009377635314,-7.03016083143996e-05,-0.0025050074424869274,0.001808438790682023,-0.0010950362479569256
-0.0038919882046480427,-0.0048669925514449285,0.008997529144051568,0.010599394591713539,-0.00311561030483528,-0.006160979094772251,-0.0015130918545856649,-0.004917096571571782,-0.00019296070661483397,-0.0016311851409536956
-0.006237633888373664,-0.009872462771905862,0.01836368932090086,0.018032699595809578,-0.002982739597533383,-0.006551230710411995,-0.0010238439952862638,-0.007174846182607031,-0.0033730914109757803,-0.0036616875567291257
-0.0053084696615597424,-0.011230720689849753,0.025622207912020675,0.022517679139006545,-0.004670567111254504,-0.00561494120357105,0.0002497110595184949,-0.0073586856165105295,-0.0033456041714134336,-0.00892155674794797
-0.00638695734718973,-0.015016390908331413,0.03257902476840253,0.027728344415959397,-0.00643703990391516,-0.00376401236490267,-9.835751037175477e-05,-0.012485599665275213,-0.004961228140524013,-0.013738998708283878
-0.0038469729718093293,-0.013763459611041487,0.038424667429628405,0.032397933349766435,-0.00966718991114778,-0.004560378919636109,-0.0022735139567647356,-0.016499344894311797,-0.0029825739312499227,-0.01610543663903255
0.0014143158643180323,-0.00788583883360312,0.040209777576852956,0.029645597643476136,-0.015509183750399943,-0.00461239333619013,-0.000661050431299213,-0.022833465307953268,0.0021718927921497285,-0.02298561995119204
0.005693532603020222,-0.0016334507332772623,0.04091370911535275,0.028153525724788242,-0.0221736553274572,-0.008346763433063377,-0.002433283735875784,-0.029779285785903258,0.008799555086955957,-0.02604065867891191
0.01293566337866022,0.00405040832656906,0.03897478657589018,0.023612384419611755,-0.027068026727082917,-0.009321842514882462,-0.0005383643891946031,-0.031956651126267874,0.014923859597479935,-0.030796634880733923
0.017365483627368037,0.0008795026722216346,0.03617647154709942,0.01702552822881777,-0.023229003414412402,-0.00869416060185602,0.005633634237329471,-0.03309176657831671,0.02062901611388121,-0.033008143471127266
0.018104978662405007,-0.002441040856088535,0.03189545764177028,0.012897490505864483,-0.018864548407970888,-0.00769132537433298,0.00699446694523429,-0.03293589762826256,0.02429141339812619,-0.03402762512702186
0.016452704477164348,0.0008013957413743408,0.02421598277773834,0.005729974874397838,-0.01304556469880533,0.0008296900884825834,0.007958954036852055,-0.029196652123330294,0.018877381364331536,-0.031964474750810934
0.011013548076838702,0.005394826208459457,0.01467660365253766,-0.0014641194065418916,-0.0030054310683861048,0.0064577332219083634,0.006383543021926844,-0.02360482979797108,0.013667937565768163,-0.030140832978969623
0.005297388085949909,0.008584680804745453,0.006475546870388993,-0.0028983927292313963,0.0035302009525588845,0.012530545845139532,0.003657749010667401,-0.01906755524631676,0.008231338286495974,-0.021319112049500776
0.002316779211344268,0.005691367233505431,0.0006023760259993626,-0.007212204801231557,0.006360755573162226,0.018692237696873334,-0.0008134610099189774,-0.013682391812453346,0.0026059626890744558,-0.015563243026250914
-0.0015535051301044892,0.00552227217243669,-0.0028070278235455357,-0.005258123701633317,0.009261661053084024,0.021565423227096238,-0.0019830411752493607,-0.011710412395111882,0.003574890680288878,-0.012029742862757238
-0.0023643148356361204,0.0017391801495697371,-0.005290273860013688,-0.0067629327582582575,0.007684688280782646,0.018639433412644634,-0.00340590611216099,-0.007368815423555441,0.0010880682488235561,-0.0064450701003864385
-0.0018005686223435706,-0.0037977308251470254,-0.006614704769789549,-0.00676015128576439,0.003829431342730334,0.014408969278085323,-0.00258269267235989,-0.004948258371358033,0.0006720632785195192,-0.0024154940640059236
0.0007016718616958648,-0.0033053977567658816,-0.0029241537280965454,-0.0009278570097584381,0.0008855468443999561,0.007416640499763601,-0.00028119363631989196,-0.004796070765837846,0.004359351839756016,-0.0001814631958686492
0.00026191504011513435,-0.0017058477235079707,0.0008290265593268944,0.00010028739683858311,-0.0012287141093007524,-0.00014957662436566573,-0.0004217359888461996,-0.0021410081792585275,0.004629210816643822,0.004055705076280218
0.0010318227667302116,-0.0008225749333277523,-0.0006350411989310069,0.001147440013797111,-0.002066791441496356,-0.0009054175233986841,0.0005028053555407717,-0.004010818519774415,0.004358921748754764,0.0026461856777777975
-2.8707356373632693e-05,0.00031418430101361113,0.00036275187312330437,-0.00034312152418322194,-0.002073599821254218,-0.0039020944090603906,-0.0008807229440492548,-0.0022482747017604637,0.0054773477829159565,0.0036572758318132795
5.611638815058385e-05,-0.0019787278000348903,-0.0016428470694215525,0.001824466445309385,-0.002115551906632448,-0.0017348031572813724,0.00047795642193934574,-0.002727940276878307,0.004870709859829888,0.0017633329477439747
-0.0009764360159539893,-0.0002363504023217928,-0.0017528944196527254,0.000609476549740352,-0.002023048898019782,-0.003973154799291069,0.0007592427434931985,-0.002852612406082826,0.0035629322769618554,0.0004626991118317019
0.0017122848150253056,-0.003209828037371872,-0.0011186979023564605,0.000735761635133354,-0.0019429312520432588,-0.004182256003957623,0.0001957139516476128,-0.0016538478588962765,0.003261923430835936,0.0019103166556087726
0.00031365928526349814,-0.0018587547512906504,-0.0006038671304528263,0.002617015224102324,-0.0010319332057973163,-0.004189033285354194,0.0007851317759848627,-0.0035923465374237754,0.005158308857580524,0.0014244302618127628
0.0007017503215357265,-0.0010080379305217584,0.0003708005907754958,0.003529576864767285,0.0003633935066478663,-0.005683654504964462,0.001101957458931176,-0.003342064411696649,0.004154141328565704,0.001511288598535933
0.00041191992767610397,-0.003523737636373982,0.0012079294989124415,0.007724870713837802,0.00024104163485529984,-0.004514715379872599,0.0003973736459541009,-0.0026331979914648415,0.0020655914807161746,-6.290430673406905e-05
-0.003930044431452814,-0.0031768872570903015,0.007517480960098187,0.01168986980375438,-0.00038466189036052566,-0.008483868177388824,-0.0023427523775789607,-0.0005668826696702692,0.00014915434983099498,-0.0018381228083827177
-0.003917450320475471,-0.008367642346317195,0.013751021553313262,0.020006130613042763,0.0006139818041284773,-0.006428736966982049,-0.00432488322787489,-0.0004509010945747752,-0.002824101452556479,-0.007210828239559024
-0.006665400795322,-0.011847749526867554,0.021297384464413954,0.02480821164670997,-0.00038746117008630623,-0.005379783231097094,-0.004748511084814518,-0.0009429497033471424,-0.004870984111379919,-0.012103876602153342
-0.006209977863463466,-0.01615584918232826,0.023787657609683918,0.03157882550650991,-0.0013461205209385214,-0.003175605677974721,-0.00528639140401603,-0.002622768195044285,-0.0036459976608000863,-0.016927733480088084
-0.0052072148934780476,-0.021556121268018265,0.028040523811296122,0.03479417033795849,-0.004425304979016515,0.0018065738701085745,-0.005670760362775005,-0.007742631298949887,0.0012730895998684278,-0.019082790347602584
-0.0007426444576421616,-0.02178194262836606,0.029837073813135162,0.03090223536294904,-0.010243415010868395,0.005173825921152661,-0.009226693812424754,-0.014484571104461757,0.007287827399172284,-0.0205481838077633
0.005420824810629828,-0.016219778845835284,0.029058745781661476,0.029797348120578833,-0.018264831974380294,0.0032294063166396973,-0.006616987953415096,-0.020738401061203,0.014811821580616898,-0.01636165497491477
0.011079134975313529,-0.008706126158245507,0.022983202576638245,0.029791707239879096,-0.03307918021917512,0.0023394982593496127,-0.009782962606069161,-0.029773595817726824,0.019347858451772816,-0.006043323406833918
0.012853872605226106,-0.004582915742759082,0.023264401160732556,0.02810349470187967,-0.04161174506155745,0.0013282119485899784,-0.010036596393155846,-0.03551970528991656,0.01995928157119328,0.004816775702144372
0.020748910744516708,-0.007224454447077888,0.02412237582396179,0.025160493061175945,-0.04510717190005813,-0.0029090679766362237,-0.007602427976416859,-0.03746634562968802,0.020885285390615647,0.009847814969218275
0.022123636034577326,-0.008683206448254377,0.02149221673163788,0.022521991421883034,-0.036560508358124126,-0.00019499879457405937,-0.007905523712266872,-0.03609560171129294,0.021105894109631724,0.007788557705876413
0.022548767024994285,-0.008308591892900292,0.016105386287689177,0.01310040921601123,-0.019305031204419405,0.009593239000686897,-0.016179041434377803,-0.032711871584770194,0.017922762082684535,-0.0021337158385450494
0.02001266950879625,-0.0013256556991526165,0.012048662475376006,0.008065821537789725,-0.005732783104625655,0.015588341580000603,-0.018412623821121382,-0.02867396103343825,0.013355179588778368,-0.013640150339142669
0.014402976759665027,0.00392342490620088,0.004505864349408674,0.0014428334967828017,0.005065565523415546,0.021804903951432912,-0.02015328890131308,-0.023792127361506276,0.010946078906856432,-0.017381136086938136
0.005944200117991783,0.0031027408653399218,0.0005102068881611486,-0.0003453501823131493,0.011052046958702077,0.028829023725081716,-0.017160295393435644,-0.017948419826490144,0.006009241883377837,-0.020256661146143568
0.0025068439129532004,-0.0011250258305308917,-0.0037388996173548794,-0.006097894650222461,0.013962101322644523,0.03359662444057669,-0.011698761955090509,-0.01358438928207225,0.006898578964026712,-0.016592730634095238
0.0008180856202550247,-0.0034991682088007037,-0.005071839877918049,-0.008861003355092736,0.012023756699392915,0.03231845323300558,-0.008717236588561243,-0.012036519747539613,0.00409484896369351,-0.013736711291810437
-0.004943836101442723,-0.0035478594144323365,-0.006307928593709713,-0.006583582317208757,0.010669855648876297,0.026812099407972783,-0.005397284373783293,-0.0057300942013164095,0.004928868820695985,-0.0055614507560527585
-0.0018735453886854242,-0.004047809075405692,-0.00376810037941259,-0.0020507176249195086,0.0009539120819756297,0.017847663465365073,-0.002539134200520367,-0.0061550571148290345,0.0041381179727346265,-0.004026013909418768
-7.722364975455405e-05,-0.0018613344688096767,-0.0013315044180171247,-0.0003314323511542464,-0.001138427528699039,0.004864987039784365,-0.0011913881509158794,-0.0030937647258279044,0.0030717275998480356,0.0013299351503730877
0.0012623691404394532,-0.0006678072036324128,-0.0012353903189971953,0.0004932007935764793,-0.00174954657813196,-0.000914402069285583,0.002216294886499805,-0.0032893055325904923,0.0062064252576703414,0.0012375325157418778
0.0006051648345266523,-0.0018489075266325847,2.576043971469857e-05,0.0006516316434669652,-0.0012973265616291318,-0.002135659857676554,0.00028857977341694834,-0.0018751264061469012,0.003772776052020797,0.0026649979267359056
0.0007110899244151351,-0.0010292150880862358,-0.0013823555838728906,0.0002075358616738415,-0.0015504055717541637,-0.003221488366947924,-0.0034518261341648375,-0.0004606266693699953,0.004612619885550056,0.0028380822404066733
0.0022868431365242444,-0.0005850249712226594,-0.003718821216292963,-0.0004079711151087709,-0.001176895304516459,-0.0039979270235021395,0.0002413896359505702,-0.0011929862620525485,0.004592473310869942,0.0016127325425907711
0.0016065868906444557,-0.0002782979478243708,0.0009185534355711975,-0.001043269099493023,-0.0016258376953470497,-0.003331120315930652,0.0017864242180162465,-0.0005608242014870818,0.002941506734599163,0.00289993648844219
0.0009011686793026549,-0.0029172833192489256,-0.0014490400479653092,0.0034640341066416542,-0.0012354831196170527,-0.003907869209841757,0.0014518841555992562,-0.0009339563464158767,0.0024684077480615608,0.0044535630804529314
0.0007807223365329376,-0.0025194652740477114,0.0007355722868596594,0.0054678712073106435,-0.0025203738666292564,-0.0032646744704143316,0.0003195813008160951,-0.0013325300045814352,0.0036418256948957286,-0.0010237790809206919
7.329986744556007e-05,-0.005904174868381446,0.002688250308896512,0.010715528126532564,-0.0008045282730963176,-0.007102440850325423,-0.001182284650389809,0.003371804265640981,0.00014200053267295022,-0.003906994706701368
-0.0015994375636795765,-0.007761805472142137,0.008590714622013362,0.013727895057188048,-0.0014994960897190158,-0.006997068536555197,-0.004720003739916689,0.006870682818293892,-0.0012139126078438399,-0.007372979778862819
-0.004060877966717779,-0.010891278711102891,0.014191897477942986,0.01849927538421741,-0.0002774966352306655,-0.005645934722618239,-0.00412783831237727,0.012474339055325153,-0.0007669513089534966,-0.009458520433721168
-0.00857566631673308,-0.01729864053907236,0.01447500142675874,0.020210580323488787,-0.001978589962040014,-0.0030512273045113737,-0.004751909783649852,0.013218685854822287,0.0009476167987751893,-0.017760995576557623
-0.007364240399716925,-0.022100511225544024,0.014324901350823085,0.021270912446487652,-0.002775825215455853,0.004168682371474396,-0.007126314311075886,0.01533896341541751,0.003312824762490861,-0.020466734972175847
-0.003351593605804745,-0.028456529451243003,0.015258409181602105,0.0158663273175427,-0.0054212980691398524,0.0060380287872068665,-0.008053714839649992,0.013682659385218092,0.008879987416823156,-0.01866332642797977
0.0035367859858790344,-0.030372717313437055,0.015536552413615711,0.012040931563487624,-0.015237383153304905,0.010164664774599074,-0.009980928543855471,0.008823841218205937,0.014208787818425689,-0.004514487694280639
0.006541276632629384,-0.023956230040131064,0.009020071316994758,0.009990564033273554,-0.027458906371967066,0.01035356710531156,-0.010122877239749958,0.0026568467099310836,0.013563796342796745,0.01280962717312643
0.008995423104130628,-0.0141057519958216,0.006127490369642137,0.009044646295430368,-0.043356348124795524,0.006638506828910585,-0.011037039795371656,-0.0019437004869702363,0.009319918431559885,0.02947630159113266
0.013776413641007679,-0.007046193045209231,0.0020099518677413773,0.011670056338044252,-0.05463403438434887,0.003371866200568544,-0.010624738868572412,-0.008049892554262658,0.003185655963490172,0.04735729502724955
0.01536990031568515,-0.008189557890757596,0.006125988736533558,0.014654340532813578,-0.05940885481217645,0.0014351190487470718,-0.015005287132934019,-0.007086242341850263,-0.0005544261608561932,0.05356067003346471
0.018737496011584018,-0.009927930728729764,0.006243291740177148,0.015101013289426542,-0.04694202319185676,0.00374240657728951,-0.024485259347049166,-0.0026994473614347174,-0.002995798671201558,0.043510562177637324
0.024427062767555484,-0.007366220864911364,0.008014730810130575,0.014232812851818093,-0.027218495522375884,0.004952863167040093,-0.03358552319070165,-0.0020329676695437517,-0.003786335608107155,0.02689864154194179
0.024382074780695383,-0.007163479867089296,0.00455655342535983,0.008425714190323482,-0.010255712120688616,0.011305665041975131,-0.038263336933515114,-0.004097813169436311,0.002997913080701336,0.005902898885753019
0.019895664773447105,-0.005668802489743687,0.002715892305600939,0.006921805296964647,0.0031604469987530047,0.019757075453358867,-0.0374496135740865,-0.003744825236105433,0.0057683708105071094,-0.009907697021908999
0.013554124407409366,-0.00812702781844941,-0.00038544356828743183,0.004707622862023192,0.007725199788199081,0.024115651658542105,-0.031353103551862466,-0.004544279053114839,0.007728874746419244,-0.016109620658820115
0.008168031880442211,-0.009023239827758342,-0.001747548239703536,0.00045040721860369894,0.014106525686031447,0.029436265768814824,-0.021451490601008105,-0.006068058989786323,0.00998429111175305,-0.019015609640514623
0.002635182150050435,-0.009769581081601145,-0.003464367675106185,-0.005545561287342415,0.009277864901955,0.03226778559981463,-0.012745395365294683,-0.006605001519163643,0.010421280099246972,-0.014900991049723871
-0.002312931305457274,-0.008460861717794723,-0.006821579466570207,-0.008360887655744807,0.004912846218968664,0.03600019529130844,-0.008301664061734902,-0.0060271843848090775,0.010110163551601603,-0.010544681426026289
-0.0029273794448859665,-0.007728845785449329,-0.004533560004559124,-0.004216453569793932,-0.0007570847269657394,0.026355382733029543,-0.005277934860635094,-0.004744175385441729,0.00563590779119816,-0.004054590417124843
-0.002525277598526843,-0.004539156524849117,-0.003316868719926691,-0.0020482417275211945,-0.003129308007699742,0.011202599047508335,-0.0023488909233856476,-0.0041582422574195695,0.004388314675183161,-0.001416153128599061
0.001525967161665552,-0.0013466597623555923,-0.0006755276419097005,0.0006977896244385075,-0.0019901980821130875,-0.0013674340972731197,-0.001190423925432282,-0.0028353571828345393,0.004968005307578057,0.0034125735887771966
0.002781472829617939,-0.0021239664857371525,-0.0027569744121508115,0.001749807409538132,-0.0004425420341102797,-0.002597503835042373,0.0006544054530210585,-0.001736481811239085,0.004600397502812094,0.003848315394077348
0.00200333949880076,-0.0005245367465085605,-0.001125204738387719,-0.0016318311696564285,-0.0031196626712679974,-0.002897685798358458,0.0015415476675106439,-0.0010452375944639976,0.0025649627454466762,0.0010851720804617895
0.0016189431456415516,-0.0033180955915114558,-0.00031378893188477265,0.001984050736114673,-0.0022840286044815508,-0.003460575025463263,-0.00033501581719015824,-0.0006505335704243247,0.004054685402000422,0.0021397976953645725
0.00022677408104673481,0.00024311399866270384,-0.0021433002919936865,0.0005965205353919418,-0.0016013551102112792,-0.0033450748972631956,0.0016956594360724685,-0.00023577684258705876,0.003793315995602657,0.002961794357560768
0.002111781758265253,-0.0004682858960712745,-0.0012615273063520847,0.002015555721628727,-0.0024633565118491003,-0.006046256372059215,0.0011715490167570897,0.000800390481341342,0.003982392090508165,0.0017835159677097162
0.0023914767335274346,-0.003342030976000157,-0.00041598939906258535,0.0032037868620172793,-0.0007048018977650095,-0.00392470908377206,-0.0017006206582892548,0.006657227621430907,0.0020862189842851655,-0.001327816299728992
-0.0034134861786968736,-0.005796410270134808,0.0025332027777920365,0.008682721970150886,-0.0015374399186727325,-0.007717838276185979,-0.0027108325980420133,0.011228452334764973,0.0013887952147689263,-0.005159014938397084
-0.0039016575336256994,-0.0073105272424876,0.008362615927281072,0.009696767076388935,-0.0020089557457495305,-0.007073270460354564,-0.005065987807977048,0.01814036884308323,0.00105450640069037,-0.00905357815971774
-0.005389645467636386,-0.012304775616801298,0.007404861528603156,0.008430340284582501,-0.0014762552950636082,-0.0043811257883188725,-0.008515258792393609,0.02618950733356786,0.0034427319073133704,-0.01398889943525639
-0.006923808353496516,-0.019092700308025814,0.007682651245614083,0.0037107663485331068,-0.003220329521546496,-0.0010577134943222698,-0.007472567240303707,0.030778750967251894,0.007201176662961254,-0.01631419385852689
-0.003145689211071134,-0.025057311353644154,0.0029624577388289762,-0.001966605653955828,-0.002621318237380845,0.004120161828527919,-0.008915240924939793,0.03306082060870157,0.011739359575728607,-0.01475324557211491
0.0014785088450585415,-0.0315016114254486,0.0005430330200495619,-0.00800981686889712,-0.008019349221492006,0.00926659748205098,-0.008705205283335257,0.03246646322927227,0.014941691194998032,-0.0008195340319326738
0.004150584729337319,-0.03232714754697362,-0.003438481749008861,-0.014411936009226786,-0.015898245926609017,0.011902797413295692,-0.009011437617586788,0.031315628062244354,0.012818456445510579,0.01434788636268193
0.010473851756179419,-0.027383094393424446,-0.006619583008171167,-0.014912000166084799,-0.02794689923036594,0.012653130478414744,-0.007030495653795148,0.02857592385985056,0.008243705025954697,0.026239040153601376
0.015087343172871855,-0.010048482277517354,-0.008785808948611973,-0.010729811392714166,-0.04099787234968399,0.007516566841483389,-0.0058028518166611115,0.02859933480307268,-0.0027487644016097783,0.032260596977018954
0.011671479649297925,0.0022195121900420284,-0.007511544643527533,-0.0051690953614855865,-0.05190940152626762,0.0054790807069186095,-0.008613269790477699,0.030394262286117742,-0.014285397430794572,0.031954457790087584
0.013445657250369147,0.007664447073920785,-0.003136896618295067,0.00531730707589789,-0.05389749260772178,0.002401345597564304,-0.0189370584201541,0.033201095141329164,-0.02122436467523302,0.031559503177377754
0.01616554837578678,0.001934472202088276,0.001986296007234452,0.014189283773489334,-0.040064132977228585,0.0025608023871408992,-0.03279253973762938,0.03671712230683895,-0.02291841913314401,0.02474593995043134
0.01747761894096631,-0.00421072407724131,0.00560178165553715,0.013441301455799852,-0.018611797692002142,-0.0011041952602275401,-0.043141459935348084,0.0345243446308742,-0.020053657935115078,0.01636519930812278
0.02016710166278146,-0.009657863936686965,0.004215579943086096,0.011465894296692421,-0.0012475561170411141,0.0012655966522529976,-0.0475901433873121,0.02950216157920128,-0.009067467318262454,0.005242898850000044
0.021985698290015572,-0.014658628494098202,0.0035970157838004424,0.009266879917198236,0.004761036418433753,0.002140578673098406,-0.04317027928915146,0.019431045570219695,0.005371716158306804,-0.006889090966771585
0.021285855873295928,-0.017251481172430715,-0.0014743296167502554,0.005393849892851125,0.00593419580471073,0.011991693472476818,-0.034592491739848484,0.0079822075223362,0.012972973022331587,-0.012005200447800918
0.014796168894321048,-0.01670436466725857,-0.0024634182680490883,0.0010567323777005157,0.0048880907144485015,0.02134951204471565,-0.025545610012835566,0.0017359675843077102,0.015945318642446436,-0.014200210294646447
0.010515943478981968,-0.013496122350825866,-0.006926267932537916,-0.005499269029491964,0.0042948784257459335,0.0278646821588033,-0.016856642072599723,-0.003458042993769566,0.01829834668045393,-0.013836477552511144
0.004003953260866344,-0.00924327418456587,-0.008106137620841098,-0.007282448202669134,-0.00041913585634226723,0.030193559996109138,-0.010082351032886551,-0.00518401644383115,0.013201902304629866,-0.008587066237743505
-0.0015818314648913625,-0.007277391861472452,-0.006296921457660552,-0.004188471673490235,-0.0006780920627577028,0.02650126746584151,-0.005515911005814002,-0.00549891364862372,0.00925338808418896,-0.004253481127227034
-0.002200823662528479,-0.00579991034495304,-0.004245925047923103,-0.001577393886663425,-0.002756702868692472,0.013901022635055282,-0.00035482949815798267,-0.0029304672716548514,0.0044710587178032404,-0.00017965955822798162
-0.00019789507741862792,-0.0022256352163734163,-0.0014946800201871844,-0.00042089515173223844,-0.002561820865456396,-0.0005504938318029938,-0.00036503011027756276,-0.0017452342923059885,0.004754976282997821,0.0017474088460768754
0.0023294900291175482,-0.0019250944113206867,-0.0002496932042258572,-0.0008127829530781656,-0.0008862973380999152,-0.0020767251431805123,0.0013881873075264478,-0.0037274849038893814,0.0038317293797370004,0.0034249116942656078
2.353876962244881e-05,-0.0008420384880042387,-0.0010224157829097156,0.000525236506511924,-0.00022007158554560643,-0.00391320031060363,-0.0003264057506618083,-0.0009094470549736747,0.006045989702695405,0.002314573438278235
0.00161554849020873,-0.00029189545077809744,-0.0004934693924064785,0.00011475089174734269,-0.0025031603693012883,-0.004686199995007292,0.0006314803139988151,-0.0011694152771975024,0.004132724933533248,0.0015970773402957219
0.0005535079926063701,-0.002218327617648983,-0.0017926024871221815,0.0005281056212784565,-0.0024642459027549293,-0.004843539628234188,0.0007243670794195621,0.000317193404808429,0.0049339311682214,0.0019483348719648123
-0.0007831371244784097,-0.0018003962563598352,-0.0006096125184826267,0.0013565255470814625,-0.0021154839378716584,-0.006381924168824098,0.0003802646289768346,0.0033277509757851697,0.002886827537338701,0.002237236592086423
-0.0023609062937047093,-0.002671431865723194,-0.0004999944467823983,0.001909892267457293,-0.002120925180776085,-0.00782632496964499,-0.002390800222453083,0.010269537029424352,0.004555992423078721,-0.002448196531444059
-0.0020874294072229403,-0.004090670142132069,0.0009892515531383533,0.004618376996922128,-0.00117698008322436,-0.006071054339435352,-0.0037256359345691223,0.016830717968492226,0.003037301243764721,-0.004934911082785488
-0.0025500192402305166,-0.006808515546077829,0.0027552299492402624,0.0022817641502763343,-0.0030680307468202678,-0.0047315293846434394,-0.005115361272794667,0.024896359896964256,0.0036746020461177606,-0.006116433102307129
-0.004191548096701399,-0.012605821623858466,0.0006916299417598675,-0.004967037725314234,-0.001773845101948456,-0.0006538787500575255,-0.004551791933353992,0.029939453086543673,0.006631923363526088,-0.007122511716923344
-0.0022844419524470855,-0.017987854254507028,-0.00571299531011866,-0.014856882539011334,-0.001627679348688371,0.004998866292543659,-0.005679293063370269,0.03475000256144581,0.01346935487141681,-0.004823050903775836
0.0006613352195513787,-0.024772303030394557,-0.011631133503060843,-0.023885126693905332,-0.001897964851788008,0.01198988998937493,-0.004715188092836284,0.03749569021101071,0.01861773004026919,0.0032865981545649355
0.003054139365782477,-0.032009201104994195,-0.01371311606028408,-0.0303322386746948,-0.0032840139384649704,0.016216898311411185,-0.004911756716542958,0.03480582347957541,0.017522819589714935,0.014061051377768308
0.01116718192204518,-0.03648531244510784,-0.01915646562480261,-0.035002798360533945,-0.007927093693413143,0.02041955171109419,-0.0027693661432811423,0.03357753518789979,0.014011924321483484,0.020822239949407705
0.015125551891915525,-0.02737296172076,-0.0206213410328328,-0.029639916951761967,-0.014000493938473045,0.015601224731164673,0.002347023647376028,0.033890331392809794,0.005515229858853509,0.017598596408034198
0.016119873547620418,-0.0034640387131580066,-0.02034782220896279,-0.019252519810736134,-0.024585762773267624,0.012753158899290941,0.004617297857405392,0.038386859114013905,-0.0076819095989318735,0.0074231411519313575
0.01140669255011295,0.01915215672517554,-0.0165214958113322,-0.0006650894993454888,-0.03725111598197226,0.008973010609147876,-0.0017975773370367736,0.04208798271967555,-0.019963977081596872,-0.005355580135704041
0.007883302511841342,0.027809354504798503,-0.004608871337383864,0.01279646438704072,-0.0363276506462582,0.0011098706271788004,-0.01993641561967234,0.04592291084801256,-0.026894827542357412,-0.007831000080449015
0.0022767106360803546,0.014287796330458694,0.006157779803146926,0.021065204779518905,-0.020633345885562673,-0.0062021669623025565,-0.036830789792610036,0.04982275115218842,-0.02444649908920545,-0.0035407450801072083
0.006656534469857655,0.0007760191246604824,0.009648946987670787,0.018761747535729543,0.0015144593562372703,-0.01353502415912509,-0.04740118786839423,0.047489776407475835,-0.02012646524350544,-0.0021407291183010036
0.015818666281803624,-0.012862539285019447,0.007249345897622144,0.014080499025650062,0.00820322942342733,-0.01571117325295429,-0.049387411174193485,0.03914276199533975,-0.005020587236468987,-0.0014043003246478857
0.021382303698983432,-0.020313057413350898,0.003941752164573934,0.010038194257976647,0.009810648369999814,-0.013815168781507943,-0.04343437763954185,0.02835901834784598,0.010933776791518041,-0.00408190534288578
0.02482243592123481,-0.02284879206282996,-0.001406772919313056,0.005543510322869418,0.0068749433474117995,-0.007126419096497971,-0.03232458916429868,0.017704978356410862,0.019189543121878802,-0.006988661024465133
0.023060211568823506,-0.020194231140053056,-0.0032852391454611615,-0.003395077665797599,0.0011007286640788761,0.003350973407908026,-0.023376014554678862,0.005901612354912272,0.021700375151817223,-0.008187318400316407
0.0171355603447984,-0.014655415622029407,-0.005846092118506496,-0.0051992970830597954,-8.764133202701445e-06,0.009892240919658617,-0.015278935789960838,-0.0020780802968214584,0.021826817079983983,-0.007255747825383696
0.009565396765396098,-0.010807480206252152,-0.006631596626004342,-0.005916690909355253,-0.004371694460186547,0.017932327664999678,-0.010246044167163283,-0.004235556798585326,0.016484426045552125,-0.007036757485633179
-0.001229376369239228,-0.0064190881735042464,-0.004514539270723893,-0.0033212571450841094,-0.004303244625771877,0.018181335526829708,-0.005185567902397148,-0.005397950416669504,0.011047019857356628,-0.003195286762086353
0.0008779178011234883,-0.003964469762723861,-0.002941585281600257,-0.0009800443072177094,-0.0021306332938510917,0.007491890711717946,-0.0011408512560465483,-0.003929564932018378,0.006592525426560883,0.0009471304070736621
0.0008063733520870143,-0.0011271090528779965,-0.002127680499532416,0.001003250493477268,-0.0027827498471581745,0.00048066326709542075,0.0005472627415233366,-0.0013801236303706327,0.0042707610630335424,0.0014253518426233258
0.00031441204776723355,-0.0024071196421034504,-0.0005518142537501472,0.0009635080960262351,-0.0027413902683192572,-0.0036441832968209928,0.0009380989136672561,-0.0023105930548293226,0.003968626298104783,0.0028331387025382192
0.0018664073389195184,-0.001313121291044699,0.0016101196219371994,0.0006686323853622748,-0.0009690945698113901,-0.0020036397943185777,0.0009920174309964898,-0.0027791757709478377,0.005044733064764757,0.0035952540850238655
-0.00016739933119076192,-0.0012098901644558152,-0.0021949795161058,0.0011994596741606652,0.0009909415199871212,-0.004339537943757347,-0.0012599904923820862,-0.0007375022245899557,0.004527331943831868,0.002123992838242598
0.0005929299662188947,0.0006285431733983163,-0.001976871401583773,-0.0018806822847982976,-0.002287511697407275,-0.004589012703847506,-0.0006285420164470445,0.001128230852049277,0.005895919057772682,0.0005627467809856297
-0.0005913473694367657,-0.001545037907732083,-0.0001596863892498753,0.0022164363620727967,-0.0007884155107134756,-0.007008201274688051,0.0011467163829878995,0.005041140930105051,0.00498244191860136,0.0015915194892946617
-0.0009517622350364682,-0.0031570367987031967,-0.00048490848324353084,0.000821582843794861,-0.001472698519042562,-0.0048570683135715255,-0.0037559551029667133,0.00856362002585935,0.003713758267685544,-0.002051607968164413
-0.0007693177199996117,-0.0031163604177551867,-0.001363040246860717,-0.0012988620885874436,-0.0027576291406658507,-0.006054763254993482,-0.004993873088370325,0.014943525855327038,0.002897865502968592,-0.002795511026496885
-0.0003338481193345679,-0.007320253876401208,-0.002201011213372441,-0.004778278220322244,-0.00374992015374209,-0.0028728854576359985,-0.0028171583234229657,0.018722455049892242,0.0036344389834463003,-0.0011235637427071841
0.0013649894712411718,-0.01192134106905881,-0.008640031777782988,-0.014442373640111613,-0.0009075785167901047,0.0020040271502411826,-0.002337840869552611,0.023807163012158825,0.010049138421445204,0.0029797135137585424
0.0019555643469101117,-0.017462100831199086,-0.017024941832895858,-0.027093156532259792,0.0011442234767332776,0.009412420478976419,-0.0012227285318320384,0.022485058660110347,0.013016017401272612,0.011570632696396625
0.0070100623079660295,-0.02735524545582959,-0.02462275930333533,-0.03859412541717801,0.005849666200642547,0.01674451007415177,-0.0018199861391551431,0.021540373117471527,0.017601937546893685,0.018863474065689938
0.010305819213762614,-0.03562925889218343,-0.029715478056374586,-0.04477535354864403,0.00989330687516636,0.024824032650007974,0.0004687428524573695,0.018693134296078544,0.019563053404655056,0.01994883339083377
0.017529660413159915,-0.03477794493674976,-0.031005380249678877,-0.039455777337960615,0.008142986295186365,0.03008194504824992,0.006305118041124657,0.017143711124395326,0.01647079704242425,0.01540264352829111
0.017704991095698723,-0.02332811436194553,-0.03180368614010493,-0.026456905630999162,4.3017853594736356e-05,0.027442876760193566,0.01349296240825997,0.019243565965860313,0.009947546688165424,-0.0025620167589734755
0.012322190561747146,0.005817762144023015,-0.027653761474168766,-0.004549591005480988,-0.01577025131894706,0.020511877398827993,0.011874609342624338,0.02073808739767407,-0.0017694611714649425,-0.018175985309522608
0.0028377544069873913,0.03786334367333931,-0.019600022872706912,0.01842721591154346,-0.02601640014924475,0.010026440689297152,-0.0036411013147749126,0.020940479410852333,-0.015087256757225446,-0.023032555655960938
-0.0056374775974486315,0.047193656255996586,-0.0065252531693271425,0.029397834734950078,-0.021742213965820018,-0.004283541132433276,-0.023266703680183867,0.02826224900897691,-0.020838126353397338,-0.01945882328694788
-0.012182469458212521,0.021984102826671424,0.004682507867809112,0.033087442022774936,-0.003060761573357106,-0.016448210941413285,-0.035122225547250835,0.03492748373482503,-0.01610424119426544,-0.009348694573063579
-0.008035989962721483,-0.00555982128875341,0.010122223412613162,0.025797338872010904,0.014491120844272225,-0.02906816844521016,-0.0409119440524303,0.041449132912609224,-0.009263860577909792,-0.0009548022337311684
0.0031217405964500673,-0.02006307831693581,0.009694145531211184,0.01517035226061741,0.018581009453990757,-0.03666512616128473,-0.04071822082047284,0.0379117571655484,0.0073703115635414,0.008060999924804016
0.018310121058086305,-0.026222953269293036,0.005130440122435588,0.003991625156584352,0.008326945556326484,-0.03452905244963349,-0.03349980547142977,0.030623377810739677,0.01810015970968115,0.01019997046450451
0.028256642116856467,-0.022992525239682062,0.00107899131603513,-0.001995729939830582,0.002127983891851357,-0.02782102840736094,-0.023069148722059275,0.017148981956206275,0.023497483923789645,0.005060675807615709
0.027565149913286117,-0.01833819940801113,0.00044174658474349426,-0.005996749491893288,-0.004544761139628037,-0.016035527503695055,-0.014196236286962286,0.010460567651932769,0.02580267688062065,9.49899782920672e-05
0.027052828389331582,-0.011912205531164564,-0.004445663569321889,-0.006866814548729962,-0.004500321127088513,-0.0062735377043316425,-0.009155052786995157,-8.372115350538834e-05,0.018976769245119818,-0.003397481350980905
0.01769378593844612,-0.006736315474067775,-0.005457950502190247,-0.0045819501922005615,-0.005414076096893114,0.0015881288975125604,-0.005056531767087218,-0.003262361573534689,0.016031146182400376,-0.0016608090669221762
0.004384440751242507,-0.004857642003977095,-0.004329883625322192,-0.0017284211399681737,-0.0035203279024877934,0.005873160533287627,-0.0020751870347418774,-0.003370119901886212,0.009134882703968972,0.0004902042314177725
6.692835664658253e-05,-0.004693887705846695,-0.0026261301512230622,-0.0020864150606707513,-0.002680983702325334,0.0012514079670377922,-0.0005109380529047527,-0.0025818399949063507,0.005884705843290201,0.0031568208684894577
0.0017012874759443713,-0.001516789540204211,-0.0005020195394044838,0.0025197101960024075,-0.0027297202573303456,-0.0034006560464196834,0.0005169478654021211,-0.0013371438692921117,0.004499595864869026,-0.0004300277460448751
0.0004146750998640065,-0.001490055233778661,-0.0018447774655037416,0.0010191360189860177,-0.002357253170679954,-0.002318404581543385,-0.00026605561117416175,-0.0021782534878626745,0.005703836208344068,0.0032073495494831577
0.0021020295214169726,-0.00011001853499699671,-0.0024795217185022127,-0.000762735507459668,-0.0018571204376221073,-0.004611294244033015,0.00047488147648999744,-0.002464263158104308,0.004629858300928123,0.0032878055841561076
0.0007693144096422421,-0.0012563695135293551,0.00023370185425656068,0.0011377975187021154,-0.0021135910831960435,-0.002729394352979469,0.0008221119192207574,-0.0028233384070982443,0.004339756712211407,0.00017902344820558197
0.0002003601537972476,-0.0008514067360823569,-0.002163635339034608,0.0002492908410444579,-0.0013293291306129297,-0.00390626941716868,0.0008111142048846732,-0.0010389286633197068,0.0045814993612566576,0.0010508116313189574
-0.00070499727999846,2.291811684712803e-05,3.0917029048691284e-05,7.173949364758768e-05,-0.002309920474707198,-0.004753922538901859,-0.00028015116295855385,0.0029890295691918606,0.0030412815568912847,0.0014848179450773695
0.0011187049762479344,-0.0017687704983425396,-0.0009546526140955628,-0.0007140507495547488,-0.0023094809834454952,-0.0051634039473538364,-0.0005481704775490384,0.00901897597912704,0.0033169447824433745,0.0033869724793441094
0.00012649217102112678,-0.005155524617687664,-0.004081270375196386,-0.0013541058234521593,-0.0008899848758568974,-0.0053456010076887535,-0.001027571167856252,0.01016122015887529,0.002990784576718028,0.004114502718958851
0.002588020325052495,-0.006727295062550933,-0.009497594585272124,-0.008539899446439422,0.0014702755215728661,-0.0011778741863801357,-0.000735984519191574,0.013212193951741554,0.006234825052616445,0.008636050141442923
0.005223783141429963,-0.013353046251429204,-0.0187071480654185,-0.0203061135471327,0.005636770211857737,0.005915080957412642,-0.001519283383340542,0.01381497397205183,0.008606552058679235,0.014389467932489616
0.006378808263414175,-0.01944895873088599,-0.02648603385829523,-0.028588987591921373,0.012217686797590594,0.016707560525509833,0.0007988699081999163,0.009331232685622939,0.008418649807364323,0.023746394105215285
0.013410094680551654,-0.027592725464579932,-0.035003239490306856,-0.038933785964199316,0.018217159120757175,0.025437115471019477,0.002066260222812592,0.004473064422371246,0.013702907352140982,0.026179850194046204
0.015173158672041604,-0.0343715775705867,-0.04166944828499275,-0.03998388063019166,0.025894879667883862,0.036177568699804916,0.006359002629417737,-0.0026488113376722405,0.017378210006880213,0.017416244693045695
0.01658217244937046,-0.03533115748106299,-0.040037331114296665,-0.025529365635990186,0.01977778553720841,0.04213597285505218,0.013839610179067256,-0.0063084139217928145,0.0194111756794383,0.00038593189659364736
0.011874418592222425,-0.02330750670062542,-0.040161741203541684,-0.003638282093909725,0.0036160502181627526,0.03663975624462584,0.019419254053547778,-0.006787646469513215,0.021853651556743046,-0.017122684846245635
-0.002504034453129993,0.012972960365097487,-0.033684314582351785,0.021605707155378562,-0.016924431997688713,0.029016635468998263,0.008265236165908208,-0.003576906570625032,0.009993945652458376,-0.0234025365240545
-0.01403506826737175,0.055466567594094,-0.022487837520762083,0.03673966719443576,-0.02479270447377174,0.00906244167747424,-0.009820389943338208,-0.0046123346873439336,-0.0019494967600295868,-0.021209590446487757
-0.021904065554883785,0.05646883740896016,-0.009977818751036998,0.041151661635869655,-0.01423610080544465,-0.009195641255145945,-0.02504589110278951,0.0020985005214328254,-0.008035693456165921,-0.011128223056188546
-0.02766817427474819,0.019355923644888272,0.0005087353791157275,0.034529002133175626,0.008127805963105358,-0.024389030807394005,-0.02845404256851286,0.01815429359442517,-0.003170059699363451,0.0012768309309544685
-0.02276751028310956,-0.015125184165607668,0.006868299003832197,0.021244511765724554,0.025715499271744293,-0.039322953421344356,-0.030160704253126648,0.03071120793759873,0.0031326546654719366,0.014855312521540175
-0.009314652154662003,-0.02606897189549843,0.0057476296035057235,0.008343770835059692,0.02251128322508568,-0.04481908496208391,-0.02516946211087932,0.03495292572420468,0.013725270319865597,0.022415462952305742
0.009713569948540807,-0.027795271176930023,0.004777245166161433,-0.0016964663467602713,0.009422831310030019,-0.0412761097437963,-0.018298127060804165,0.02647592877086944,0.020726179206675674,0.020829300553865688
0.02676487890716916,-0.01813115514139181,0.00114693094238699,-0.008080121480337696,-0.0032129838034453844,-0.03668618989568023,-0.011793039979920926,0.013667415951913967,0.02061719223087119,0.014008311587909123
0.03158233221885548,-0.013693854514400583,-0.0034986173627565556,-0.00995037472344602,-0.005888010367306715,-0.02602947010177065,-0.0030319575838455666,0.0040881873297094065,0.018278318229161428,0.0047235501835879955
0.03301874410193155,-0.00852879372299678,-0.00602981231950542,-0.009152524637060525,-0.006824974496815618,-0.017771988554834195,0.000757181202818605,-0.0030376861883691137,0.01618801044077498,0.0009752925407528997
0.0238229857986658,-0.005729850288603294,-0.005999208873248753,-0.0038503881155512783,-0.005982450936314332,-0.009130327656967826,0.000866155950950351,-0.00414500507244055,0.011786315680119095,0.0009650689398943218
0.008105706285440103,-0.002193022223607413,-0.0020763768598344857,-0.0007927578221712096,-0.00463092311235641,-0.0013052037666350645,0.000694978601926332,-0.003600540336215201,0.011125748642305594,0.0009902867413659722
0.0011387714425691283,-0.0021141750838292394,-0.0011217994252101257,0.0004551621792161874,-0.001680189265691348,-0.0036347944846210414,-0.00071695834667331,-0.0037163019310262834,0.006036576333067734,0.0027732369754148957
0.002878099833897404,-0.0010329148468670958,-0.0006901874848011736,0.0011052525382358666,-0.002418836253873706,-0.00357847825956854,-0.000771503989240708,-0.0021959412616165616,0.0035383703455146506,0.0020315147663519557
0.0021018194382924917,-0.0018612516051422937,-0.00012704261243226696,-4.264089255125023e-05,-0.0014870868274037316,-0.0059571983262044,0.0006828120586677871,0.000596363342158809,0.003679741707507511,0.0034744431504480297
0.0013663119941846615,-0.0009695149863270132,-0.0012052182542943266,-0.0006273774542295555,-0.0013504703017780389,-0.005034800888878408,0.0016282205733566758,-0.0019702526153246316,0.004663839504698633,0.0010261983373717723
0.000644473550789213,-0.00307653503332439,0.0007959331846252328,0.00018244980245379298,-0.0033840736125535995,-0.0029931989915201523,0.00011476000146208721,-0.00043899816422193717,0.004241709343721861,0.0038742070116421713
0.0012622077094043421,-0.002826834911889294,0.0006660176878940919,0.00021743432977544357,-0.001539748597306476,-0.004951351325575586,-0.0004727935889265112,-0.0010863583001993965,0.004746542259387504,0.0014053493253531177
0.0009783213105723641,-0.001337655874987675,0.0004453723239389633,0.0005662849788660726,-0.0007092490488575045,-0.0032348720018188118,0.0012507519244033905,0.0010246969355520307,0.0043821036531144775,0.000965747468416516
-0.0002117535604573918,-0.0028193837213382087,-0.0029560264274687367,-0.0018780430280442631,-0.002068713720980376,-0.0052101808597263335,-0.0021025728646653224,0.0036811549057857882,0.0038213933290552602,0.006860507161100428
0.0040403166135730825,-0.005071977933341422,-0.005780539893981667,-0.0037288546139261475,0.0009350778563863677,-0.0030679709809657,-0.0021325612080569994,0.00508838325739172,0.0023429779729627143,0.008186526827750965
0.007622582520733838,-0.007962437463531376,-0.01572393511433932,-0.010843963959727181,0.005001411557971475,0.0006383149711196223,-0.0002896014583981194,0.005858590896346173,0.0017255025296297722,0.012774533229846225
0.011999777310120963,-0.012142412629516097,-0.023522484970619637,-0.020626935188004812,0.011642712969158506,0.0074878191162996545,0.0011529976979695552,0.002278819227057986,0.0008335944816041238,0.021549584047047765
0.012941826944889784,-0.01725013677760057,-0.030805322005361478,-0.0301115031294567,0.02263531725005522,0.019556460160572872,0.004493177864674416,-0.0029415871029021324,-0.0009603826920245826,0.027410952194440893
0.014028859725702197,-0.028006711350947955,-0.03992355423361194,-0.032088999190083276,0.03683114363455478,0.030787612191135627,0.00711643767799609,-0.013418539428141803,0.00015708564162173312,0.022543319520934378
0.01752326882009045,-0.03660340647272971,-0.04409379279444608,-0.023286723087917367,0.03604632307260212,0.04642025001283457,0.012780055223928645,-0.02155234704555313,0.0072410641938724304,0.009787978508925411
0.00953295898772385,-0.039059059389123206,-0.04731887409727318,-0.0032604594961418137,0.019252377223856018,0.05049859410638492,0.022068700842350908,-0.025831275499921726,0.020856566506262025,-0.010982763002617923
-0.002301021564668095,-0.026338365019149698,-0.040864215484395415,0.02176842223155346,-0.0010608229895160445,0.046096102701633467,0.018835411506211503,-0.027773328244921635,0.03172862268322353,-0.01888141523520857
-0.016021712495471695,0.019828163084077553,-0.03273071407125336,0.0377751277788705,-0.01906591402625127,0.02915194867654753,0.0015826637899533993,-0.03052595094629362,0.026408252321264633,-0.01724089616336552
-0.03062552117274706,0.06629681745783379,-0.021907135050609896,0.0466918354900139,-0.024577845241912318,0.011070014150914648,-0.014856817746056844,-0.029062749968297472,0.01215371513308118,-0.010064269334333315
-0.03791189432545246,0.05431680420736368,-0.01086658573717275,0.03962164680970246,-0.011874656812400648,-0.006873449482749726,-0.01985060911458948,-0.017450608291959102,0.00753573047242643,0.0028873213774373496
-0.039357722395136935,0.005516269196391747,-0.004163149043564734,0.028865549764552863,0.015029587874145996,-0.023619469236253708,-0.015485269878575644,0.006960555126536911,0.009139578743703308,0.013388160670755874
-0.03471400843887033,-0.02607327810974559,-0.00010266490561663217,0.015031449282842564,0.030204328477885255,-0.031750908361347,-0.01208473630725199,0.02570680993497238,0.010184484950803322,0.02402248687113103
-0.019764903108082207,-0.029946710882968464,0.0014145520604712935,0.0011413184531655182,0.02147987165580387,-0.03618431126264874,-0.007382290115994563,0.02866876079649204,0.010283234912992665,0.029522237932799192
0.004049316356771441,-0.025333920768733045,0.003017899506782934,-0.0065982762490385885,0.0043995212969379005,-0.03485042232844716,-0.0040701170991662506,0.02221340564866876,0.010642364878408719,0.025925639040829906
0.02450545200320725,-0.017082676455240847,-0.0011199486044382331,-0.011055057698672356,-0.003149787099595523,-0.030925318021305985,0.005658819767874898,0.009400738912441543,0.01118822981588009,0.011573943159737416
0.032066507137807815,-0.010517055103346927,-0.0037418205475702937,-0.010770696249103071,-0.006816588165824933,-0.02371771436806731,0.010230883572804541,0.0009714520166622941,0.010085235403314555,0.003931008739034434
0.03363879047903448,-0.006169547492074647,-0.007193573908107634,-0.00914434786928586,-0.007391801422163101,-0.018980727748638865,0.010991866553802116,-0.004329329280511689,0.006954154528577671,0.0006953114665521393
0.025437058370010653,-0.004005096424636118,-0.00653343394061547,-0.0044653507961037835,-0.005806017982823844,-0.011746124482398054,0.007155953101843229,-0.005180802286791349,0.005073042225771351,0.0008061861591458447
0.00894979693145429,-0.0033956891101846335,-0.0030375932770341494,-0.0021248312040438935,-0.004391412527265577,-0.00558435685829845,0.005280869770564186,-0.004639588394816597,0.006052635080457545,0.0010515294579391322
0.0017459142273537833,-0.0008265996059272432,-0.00046496555491591445,0.0009172447457333355,-0.0026636804408148914,-0.0035981118083961115,0.0009362027885357243,-0.002498805083735171,0.0033992378232023356,0.002369823665427563
-0.0002819368196241489,-0.0004110735150832691,-4.9571022113356275e-05,-0.0013073106451534182,0.001077591881630702,-0.004344785663937757,9.937788876665033e-05,-0.0014771935492392065,0.0038904864605831253,0.0032843842943861344
0.0008219078321098577,-0.0026475339226270053,0.0005822041373830613,0.0013410979560876289,-0.0013128354127557662,-0.001578615088911237,-0.00018177983762021494,-0.0021779931226070647,0.003226444555899446,0.0009450339719000145
0.0006377462029009276,-0.003160873597521994,0.00012958321874768084,-0.001102776112771344,0.0014258477414099812,-0.0028229748161507826,-0.0016397905382796,-0.0011719351845387214,0.0068000687640063714,0.0023470528004094003
0.002121743481118642,-0.0013661226414620371,-0.0007827055510678767,0.00040371812908058,-0.0015397684723160948,-0.004961728340536768,0.0009651143068202576,-0.0014076705887527585,0.0034491397489427684,0.0037125945210837595
0.0013133563596376323,-0.0002278405231485995,-0.0014080099977174941,-0.0016242506684916926,-0.000488291367383176,-0.003913258737359893,-5.896844648867758e-05,-0.0012078001035486284,0.0034868719464296255,0.0015612058854529356
0.0013632513997194776,-0.00044823521102614844,-0.00184173962801868,0.0010585879366553901,-0.0031088198105052724,-0.0029822485752516595,-0.0005343025181597365,-0.0018161131263132136,0.005481251362299161,0.002220923296742312
0.0015650037962009764,-0.0019128703098334136,0.001129898141788484,-0.0007678475339307544,-0.0003661695968228576,-0.00660301563112015,-0.000314371330163768,-0.00032808526412339686,0.0037627272986586633,0.004783821067184498
0.006879465139712925,-0.004872277094878325,-0.007416044111837674,-0.003745518408186199,0.005731449170430357,-0.0024964878588976253,-0.001645588758408281,0.0022651924106574474,0.0010318909347658398,0.008397317015080522
0.013790100836589617,-0.00734586490954196,-0.015912691052401184,-0.012356259443018174,0.011456060002415079,-0.001020880396361105,0.0006557596366595001,-0.0009205282805091833,-0.0038197054290466698,0.013248093562355515
0.01885316923594179,-0.01221666012557027,-0.025247599833338946,-0.020943950935692936,0.02727379623080493,0.00636825046039602,0.001093144679546166,-0.0052149329888028706,-0.010495286736810121,0.019931870931641383
0.018338042893887845,-0.01917355106609167,-0.030715999256162387,-0.023371924947104907,0.03795174048630427,0.017017403719869657,0.006676208881613169,-0.013293494775540801,-0.014133692052298072,0.024120674938542343
0.01814354862409038,-0.031117537809185643,-0.04052393378106515,-0.021090479331691243,0.04569666238359165,0.03331509944582771,0.011146327607792673,-0.02730151791399171,-0.013307465617040947,0.018957350716145786
0.015119527599467168,-0.037401822958746264,-0.037957222700805135,-0.006463032534339902,0.041146559795101754,0.04708335961131324,0.018765789954690963,-0.03525237543714395,-0.006809958141480029,0.0042254777628481874
0.002454273043361122,-0.04226730749839091,-0.03376342078455218,0.012412760807639499,0.019774163756947096,0.04912906724647653,0.023984473228120674,-0.04015443678155727,0.014672262335554359,-0.008528297364430408
-0.01714646194467161,-0.025552515928175618,-0.02997619450691048,0.03253381805394587,0.00039638732579897504,0.03965716164196002,0.010373870024575389,-0.04305993852111842,0.03597832682925864,-0.008981038741010404
-0.033222930634312406,0.0308426603263782,-0.02461958286584918,0.04074951052575026,-0.014760625767445692,0.023969964627346144,-0.005285033044000413,-0.04873535055090095,0.03578792199583904,-0.0030155905604959793
-0.04294146234203054,0.06553015440311898,-0.015965593313029085,0.034688670135920766,-0.020104990839676578,0.005870166227328196,-0.01136253996699212,-0.047301671446184634,0.022935381261834087,0.004560646086191282
-0.04824777945463408,0.042064783552596054,-0.012682646621698651,0.023712580126678456,-0.004252931807829157,-0.010874196382958076,-0.0051522509188149275,-0.02471767366248972,0.020830406067030634,0.0137251258015853
-0.05089028591258568,-0.010926757872297974,-0.006747705610994083,0.01885314436560316,0.021774764655065084,-0.01907695145864589,0.0022546282065405124,0.006222372395359857,0.012162780928426691,0.02483167634624106
-0.044198393829313926,-0.040117269019821815,-0.003312184400507702,0.011504740852272467,0.03394748679816979,-0.02306031920518985,0.003146348182006478,0.023708583751188388,0.001002404025347947,0.0324194110346104
-0.025463834387469776,-0.03627602308821668,0.0017102009257847774,0.0026291977917859643,0.023453533711637903,-0.020230143754536085,0.005686617409326522,0.02380176441584239,-0.004533889052637311,0.03146492779860577
0.0008929769752986797,-0.02389696012978472,0.000753284662403829,-0.006415434777070693,0.010383686471833284,-0.02090049449709084,0.011871666175692215,0.015538159350908243,-0.006149276408117423,0.018074989953000768
0.022737677102427713,-0.01415033532840399,-0.0036692778583134926,-0.009032105658927363,0.003297740532666936,-0.01899869169252616,0.014741433532146577,0.005418080599695305,-0.003252476352744441,0.005002063664963644
0.03212252235596997,-0.010302611284542153,-0.009801298597752106,-0.009720589805859747,-0.00047827090822465514,-0.018648858136232658,0.021616190178278417,-0.002365391739166252,-0.0022309388380211924,-0.002465979222805877
0.0334834134242989,-0.0066420960861369,-0.012125190873013055,-0.007116467084767698,-0.003290052004487062,-0.01488567178022103,0.018561563279534822,-0.004835688853641241,0.0024381427245099173,-0.0034500624745471813
0.02581461834572972,-0.0034145542685743773,-0.006557355310051234,-0.0029590756232440907,-0.0014248015066359876,-0.013008404013061583,0.012318663773336576,-0.004858687484616767,0.00165789779029994,-0.0006103486559305626
0.009851750547860862,-0.002561601835536701,-0.0038179035603242086,-0.001016261204447082,-0.0013564855102376479,-0.007112908034035081,0.004026955242237173,-0.0008262868481200741,0.001215352588117056,0.0024946914127341197
0.002885476542537864,-0.0015217665548021048,-0.00041931155387672965,0.0010524450113016883,-0.0005848518407503421,-0.003422040549515535,0.0014600769165233202,-0.0030828885671774055,0.0034359420954277534,0.00015927788941034245
0.001238158707699007,-0.0005821536907864087,7.059152006927904e-05,0.00108561111472079,-0.0009864124414480206,-0.004052235468228963,3.30179073696771e-05,-0.0004040520232784806,0.0038051039451280264,0.0024870265941631447
0.0025927205533119663,-0.003500003491682112,-0.000550358237355454,0.00023183924280692774,-0.0028574145062223834,-0.004586744641822224,0.001004803272489302,-0.002402774662452877,0.0038433584502722195,0.003246224467410988
0.001061005038837031,0.00036848523344466827,0.0006936751894132889,2.0309716827398964e-05,-0.00036251713605046833,-0.001890056501569985,-0.0002720605936187282,-0.0025665904203749507,0.0023399389340998224,0.0036379712393213104
-0.00022963111478399264,-0.00264703926990714,-0.0002938255563379754,-0.0012575576638204054,-0.0012714439067057766,-0.00329489771595386,0.0017270011282526402,-0.0029559923900629066,0.002203480191224628,0.0007658355882543392
0.0012429045759311571,-0.000976723739072123,-0.001017972317190645,0.0011114231145153317,0.000557876341484434,-0.003105971177437547,0.0002311429957810474,-0.0025270897697152197,0.004041314649991752,0.002324865233821179
0.0004400967879414086,0.0004444035196563762,-0.0017449297647318665,0.0003750688739416126,-0.0007743565221537053,-0.0035936794477427004,-0.0012017026024142476,-0.0028354162627282926,0.0040973564773768775,0.0037666254677792234
0.0024952192105183535,-0.001292897054218456,-0.00024470258545338755,-0.0009392112229546162,0.0006818455349088533,-0.003826442003809192,-0.0013585310796512143,2.699635571891965e-05,0.0040041293868094945,0.004307285670303465
0.010556621503042542,-0.005615610206590832,-0.007757834202084132,-0.004790328548991558,0.008578315285819324,-0.005634292713628466,-0.0035258136619142275,-0.001420526235938828,-0.0027554269480704425,0.006873142637798222
0.017802029104467872,-0.008543527406798094,-0.011828613687813789,-0.010501572667483462,0.02232016508288589,-0.005618718657589502,0.000607222273311205,-0.004984295604167682,-0.007727736513647,0.00940093519686604
0.023216662429551848,-0.013766910628385445,-0.017439119651060993,-0.016236724427571275,0.03837341993440567,-0.0024228907864785373,0.003504202519339897,-0.01276874723602151,-0.015737302857891267,0.01585884449358352
0.024358922459833118,-0.021699957345840296,-0.020754515258101642,-0.01742035150062242,0.05086993090338064,0.00610020682868659,0.012242028721237664,-0.022163135419731642,-0.02529729771344055,0.016775436427514986
0.021960434446370112,-0.031247057032854523,-0.023059929842608604,-0.013511459862032484,0.05400677388845009,0.020875443519659618,0.019517921522060003,-0.03612115914514472,-0.026189803903272368,0.016984324328144763
0.010529619462284529,-0.03877090736202527,-0.021224409461117463,-0.0018285736707174803,0.04513128806643562,0.030687055470167077,0.02608956079096093,-0.04364739392853357,-0.014894799947579163,0.007434718172111292
-0.008966815692533454,-0.040340670029955374,-0.011033403872569778,0.012857029258710944,0.029712731102940884,0.03301593234348786,0.021953839846973716,-0.047685151503409746,0.012006338088833491,0.0046680842581761275
-0.028292553109026394,-0.01855235293693562,-0.008284669779604042,0.02367696239955809,0.014317847874418876,0.024249878817220218,0.004729125293749926,-0.05156813497665756,0.03405441137275628,0.005545824789130055
-0.04424989697018307,0.03792541381140034,-0.006502822068480462,0.017305898560988898,0.0018791115448829935,0.009464661668185156,-0.006400990551060206,-0.057448400614874995,0.03797635957735401,0.006415461017083694
-0.05004252967017998,0.05765458405953616,-0.005386847298068992,0.010956750694990967,-0.002726269817135072,-0.0028369564900664864,-0.0010897620217597977,-0.047577321512856395,0.030117686028925512,0.008089093820244125
-0.05431643538615599,0.02946609309554169,-0.0046027752225782405,0.007206546146513017,0.012730549605526487,-0.013435313109718574,0.009677827480399758,-0.016455171720401778,0.01998788201741526,0.012826474167869854
-0.05225942421200432,-0.02509757974791686,-0.0022573500721113204,0.00924038297403738,0.03518551330213127,-0.016762677706804528,0.009041803424945646,0.01243705573977328,0.006647275856258715,0.023338557618871988
-0.04201548858994543,-0.0449653533460184,-0.0025765150740063233,0.012861360489725247,0.04058241191120104,-0.015475594391752901,0.007798038484890994,0.02555089672361957,-0.014009331588986401,0.029811722453398477
-0.022636644883108573,-0.03439893181324482,-0.003441180266832203,0.011602177835008325,0.03220801322243935,-0.010796462288453344,0.007126444008219384,0.021473366636158238,-0.02304073252837114,0.017640716877235077
0.000846256553087381,-0.02347785145286265,-0.00616321235572986,0.008364129743236644,0.020980824672809623,-0.006899981758835649,0.015570875493050142,0.0110036584299656,-0.021401323729281933,0.001518531309488702
0.023221153883638424,-0.016733808500580764,-0.010196175391257006,-0.0006385288531276239,0.012987062074855804,-0.008077758906142164,0.020258748317890585,0.0009959872304557212,-0.015953599834908634,-0.006369744615956084
0.03004428711788727,-0.010034204102423845,-0.010235683912736968,-0.0035873717507791205,0.0035193274319092038,-0.011249053192942324,0.024458446331274006,-0.00349089961681605,-0.010668917206539437,-0.009192773671342936
0.030722399339765026,-0.0052628891063204244,-0.010325865271146028,-0.006161913258289354,0.002367589955752736,-0.011710131087380775,0.021486461421805853,-0.0036363635575912493,-0.004631587191073254,-0.0053367619332135635
0.02426844304663647,-0.005382034942296465,-0.008833462668993975,-0.004039112354867131,0.0010810467787650021,-0.010244131067409708,0.013706144182210308,-0.005067308127149027,-0.0011191132731130844,-0.004239156080753986
0.00998517744083636,-0.0028034870660348446,-0.0008521682100265035,-0.00047759076471284964,-0.0010943764153573884,-0.006565195451179325,0.0071922703599104415,-0.0025930883483734173,0.0040251617668027335,-0.0009314371866118313
0.0025568433242756307,-0.0009160237209662432,-0.0005604188387602345,-0.0005990070473612598,-0.0018025016017096974,-0.0016303309154804926,0.0012253282858145447,-0.0036480731330406943,0.004022537435674283,0.0023871781811910225
0.0012182396889994138,-0.0004724691689381242,-0.0010900228734926937,0.0014045039627738525,-0.00018204733888252324,-0.002657517204488332,0.001418826250960193,-0.0038936800375129707,0.004968346044963376,0.0023997257431524637
0.0007436653755353879,-0.0017021960512703695,-8.967512616546566e-06,0.0004449280706481782,-0.000287466385767808,-0.004376582035757635,0.0005391228858003241,-0.0023689718333956638,0.005383393483785725,0.0032077007961976395
0.000389418685627996,-0.0011421231449847491,-0.002141939123747978,0.0010601832084796787,-0.001834246370171406,-0.0038770338878621035,0.0025082659140371307,-0.0024369775422521845,0.004200619805837364,0.0012434349351088802
0.0026089946228083074,-0.00028137025980112644,-0.0003517859844835633,-0.0011165029085763024,-0.00028886134650956655,-0.004389928685376722,0.0016039847700072803,-0.002230557276991364,0.0051092301445998,0.0032816842744072734
0.0012869816880200218,-0.002792046120736866,-0.0005763282557827526,0.002088421534888257,-0.002639676542094217,-0.0022500909910016156,0.00103067910781768,-0.0017558978609970351,0.0023589205262968082,0.002386576725902075
-0.0002872618041037632,-0.0010863982155455512,-0.0009917037392950378,0.0006112464230587516,-0.0005112222491037066,-0.0035015420011371787,0.0008358172642898267,-0.00018868801600344944,0.004634789390904273,0.0024712641197235626
0.0038787344576381904,-0.0014624211154225636,-0.0021136585973332684,0.0007806767518527807,0.0014980439090284438,-0.004651543166791862,-0.0015243896769210987,-0.0025449234842887295,0.0018439648929512997,0.004227974868183616
0.01402260117199682,-0.004222055172063075,-0.002387631742949028,-0.002385709150202869,0.010410757132285016,-0.006315447646509037,-0.0037332010218353727,-0.004420879456062657,-0.0006681282735382967,0.0019547908849692876
0.024289376645411063,-0.00715780409530083,-0.005277620253216457,-0.008460043482361302,0.028074112775988102,-0.01065052060201637,-0.0021039011783656456,-0.007713118561583341,-0.009437597461583676,0.0027697486221606145
0.024789630590076526,-0.013554490425394387,-0.006249828589945971,-0.01521283399592054,0.0417979379285596,-0.012571139998456401,0.004527981747949826,-0.01628454321642191,-0.019348565682452863,0.008534248786034964
0.0287127310295006,-0.021978059110476126,-0.004334237381682997,-0.019180920534877847,0.05205758372182439,-0.009069917116121314,0.01427092668271402,-0.026544596261419074,-0.027683794026482102,0.011863137507903437
0.022051119018190145,-0.027962495592725067,-0.0026289654172155716,-0.01663421453795054,0.0514304755458092,-0.0004922298623528992,0.02587821089311053,-0.0362505451370106,-0.025242426000473203,0.014141361676426517
0.006904741193379716,-0.038136765993346054,0.0032020170570281024,-0.010196381257972746,0.04559111904048268,0.0042921273697454475,0.029900851845895686,-0.04212658426341974,-0.01280967454462029,0.0150564942656933
-0.015917232936745712,-0.030701774198398507,0.010292752843307598,-0.0030488218421865685,0.03884421567828546,0.0033848509829106253,0.018866327133823007,-0.04411794826446097,0.01429080537602116,0.01123470510711299
-0.034179399489351704,-0.003352242531741428,0.014899439145987792,-0.00237097584547592,0.028673939888993895,-0.0007882502630499476,0.0030038859771346514,-0.0500059836750041,0.035348880323415315,0.008400235036280766
-0.04688913399701084,0.04241063005715577,0.012698296669786772,-0.009911571754129125,0.01987583571100629,-0.009861962188596465,-0.00181294217757398,-0.049809177658821056,0.03768969090151884,9.24775795684632e-05
-0.05155874660720357,0.05327799313067742,0.009084027130834295,-0.013080259594825672,0.023172780056553086,-0.01528632725974527,0.006819946714936349,-0.03213386967500136,0.028598848515241308,-0.004544080659728666
-0.05297210971929651,0.014686752155425243,0.007620721421248873,-0.01043034455312405,0.03424135039207095,-0.018414061299483662,0.007803662984643421,-0.0003526156149120012,0.014357168730775933,0.003648810986008312
-0.04884072033016307,-0.036378548729905716,0.006223949537596391,0.00043238742241006657,0.045974773711850506,-0.014704156383419865,0.003584864836430217,0.02310246478173553,-0.002126331385102438,0.020007460122126106
-0.03372457253842178,-0.045128431562222286,0.0051469896610611,0.012532768591629823,0.04676212767376966,-0.007039584121842305,0.0009773875245256127,0.02592827146615943,-0.023019905112807784,0.02207575566882488
-0.014170543218720747,-0.03366158565782216,-0.002120728335605421,0.019166460916421792,0.03809518826747969,-0.0004341366848309089,0.00477537717324165,0.01742894604487316,-0.032052468501949455,0.0049600558395005885
0.008803836136939937,-0.025586061129759398,-0.007210394650111991,0.01663336640544433,0.025149486613930242,0.0008496494931992708,0.014557925869273024,0.006996859797242893,-0.026329399899776083,-0.0125723014403065
0.021383601881866922,-0.01695852680900965,-0.00931897066225482,0.006611391571680331,0.012106420799357387,-0.001858131709772871,0.02278132761139908,0.0015526981284506903,-0.02108846109608136,-0.013491876920634622
0.026137846324483988,-0.012492073572203298,-0.008334071557428893,0.001579958353039889,0.00642914684242686,-0.005679573501047641,0.026530084551318424,-0.0031921953749743715,-0.011082686243280493,-0.015425625373418246
0.024821206896624214,-0.008596963108052767,-0.006534966599544767,-0.002152005306612141,0.001316381308982695,-0.008516900628903071,0.02188941451188168,-0.004982807428116762,-0.0060748533402183395,-0.00873085288177345
0.018307589739489517,-0.005555894955842193,-0.0046193518950608334,-0.002485278020629746,-0.0005045555782796647,-0.006792949784749569,0.014403587970477263,-0.005407780605720057,-0.0012022150780408329,-0.0033921414320003717
0.007530156423757553,-0.004566480677272926,-0.0013333308377950137,-0.003425748205248615,-0.0020741647879901,-0.00933720158822049,0.006707534587762033,-0.004108500751132223,0.0011149342510100107,-0.0017627584628997252
-0.000980981843177076,-0.000854870194959154,0.0006956422075149516,-0.0006698865152534863,-0.0003458603395384162,-0.0032275061439187834,0.0005644840906740521,-0.001839965087248055,0.003919890267785461,0.0018134526663962812
-0.00039087005254651475,-0.0011422802334694468,0.0017600644709689852,0.0011442269881934788,-0.0003778413820830352,-0.005257601188704121,0.000724972384949275,-0.0007534322808498387,0.003355568139379099,0.0023341869325292945
0.0017844396639480412,-0.0017761250163693834,-0.0003529366185907631,0.0021462244883783867,-0.0013342767887665394,-0.002940556416224549,-0.0004955792766589561,-0.0017990158910681916,0.003922893033671548,0.0017976458729832582
0.0007703174099141638,-0.001637322458945375,-0.0026302111042892295,-0.0018290546315961592,-0.001524462779527774,-0.0027125447835417357,0.00036941852579338934,-0.004164824569584379,0.004415820837423231,0.002259139562047755
0.0022217256705085436,-0.0012724445599724438,-0.0011240318026532795,-0.0003931906691108213,-0.0009828713497892262,-0.005953239187170891,-0.0011092735229918168,-0.002287705329729212,0.003663320734905043,0.0014498195794350357
-9.698239771743636e-05,-0.0030286097023005374,-0.0011145284786052154,0.001228398203503985,-0.0007895257822095431,-0.004739003701828487,0.0014902068359115986,-0.002083927263683649,0.002683325788801172,0.0017266260255886373
2.479507028106776e-05,-0.002079549626377291,0.00010748585536197119,0.0008426453040155588,-0.002227761739447643,-0.004163664296839918,-0.0006418823386700352,-0.0025075325884212573,0.004219256497471649,0.002804645114902763
0.005268225255515137,-0.003005268025318146,0.000948193708776311,0.002082917891297666,-0.00036023864044112475,-0.005952862038226548,-0.0019629173500053786,-0.0017689069692665032,0.0018001485587307387,0.0017772199403682121
0.015992927896128,-0.0060765942716619475,0.003426262071760421,-0.0021615388411176713,0.008671408402181073,-0.008489108175183311,-0.005445028001269853,-0.005926901763138878,-0.0039285962055625265,-0.0002983866253631635
